%YAML:1.0
my_svm: !!opencv-ml-svm
   svm_type: C_SVC
   kernel: { type:RBF, gamma:5.0625000000000009e-01 }
   C: 2.5000000000000000e+00
   term_criteria: { epsilon:1.1920928955078125e-07, iterations:1000 }
   var_all: 6
   var_count: 6
   class_count: 2
   class_labels: !!opencv-matrix
      rows: 1
      cols: 2
      dt: i
      data: [ 0, 1 ]
   var_idx: !!opencv-matrix
      rows: 1
      cols: 6
      dt: i
      data: [ 0, 1, 2, 3, 4, 5 ]
   sv_total: 1886
   support_vectors:
      - [ 7.03259430e+01, 4.55926514e+00, 8.59597588e+00, 7.24393387e+01,
          8.43387699e+00, 1.32398319e+01 ]
      - [ 1.00640831e+02, 2.84688091e+00, 5.28166342e+00, 9.34499054e+01,
          8.08506584e+00, 1.28865786e+01 ]
      - [ 8.78174591e+01, 4.49007940e+00, 4.33333349e+00, 8.42043686e+01,
          1.07460318e+01, 1.10456352e+01 ]
      - [ 7.24345245e+01, 4.40476179e+00, 2.84325385e+00, 7.09384918e+01,
          9.07738113e+00, 8.08531761e+00 ]
      - [ 9.83511887e+01, 3.66468263e+00, 4.52380943e+00, 9.58174591e+01,
          8.56547642e+00, 1.14682541e+01 ]
      - [ 1.29410202e+02, 2.53308129e+00, 6.91493368e+00, 1.30378067e+02,
          7.90737247e+00, 1.64517956e+01 ]
      - [ 6.67996063e+01, 1.35515869e+00, 2.30555558e+00, 6.79781723e+01,
          4.36309528e+00, 7.05158710e+00 ]
      - [ 5.83829384e+01, 3., 1.58333337e+00, 5.87480164e+01,
          7.94444466e+00, 4.58134937e+00 ]
      - [ 1.14565216e+02, 3.68241978e+00, 7.48393202e+00, 1.04676750e+02,
          8.78260899e+00, 1.42362947e+01 ]
      - [ 7.49801559e+01, 3.45833325e+00, 3.23214293e+00, 7.21825409e+01,
          8.98611069e+00, 8.63492107e+00 ]
      - [ 9.48431015e+01, 1.94139886e+00, 6.48960304e+00, 9.50586014e+01,
          5.78449917e+00, 1.27901697e+01 ]
      - [ 1.21247635e+02, 2.62003779e+00, 5.22306252e+00, 1.19026466e+02,
          7.73723984e+00, 1.17542534e+01 ]
      - [ 1.16759918e+02, 5.99206352e+00, 6.81150770e+00, 1.10827377e+02,
          1.33531742e+01, 1.52916670e+01 ]
      - [ 9.33392868e+01, 3.95634913e+00, 6.42658710e+00, 8.97460327e+01,
          9.84325409e+00, 1.41111107e+01 ]
      - [ 9.18849182e+01, 3.81547618e+00, 4.09722233e+00, 9.19940491e+01,
          1.02321424e+01, 1.02420635e+01 ]
      - [ 1.05763702e+02, 3.19848776e+00, 5.76559544e+00, 8.79716415e+01,
          7.95841217e+00, 1.34291115e+01 ]
      - [ 9.38055573e+01, 6.58531761e+00, 5.53174591e+00, 9.76686478e+01,
          1.47400789e+01, 1.25178576e+01 ]
      - [ 8.28789673e+01, 5.74007940e+00, 5.40079355e+00, 8.11527786e+01,
          1.15912695e+01, 1.22896824e+01 ]
      - [ 7.06462173e+01, 7.91105652e+00, 9.96706676e+00, 7.11506424e+01,
          1.03602295e+01, 1.24757624e+01 ]
      - [ 1.07056709e+02, 2.60869575e+00, 6.88279772e+00, 9.12570877e+01,
          8.07561398e+00, 1.31833649e+01 ]
      - [ 1.07289223e+02, 2.76748586e+00, 6.21171999e+00, 8.95122910e+01,
          7.26465034e+00, 1.18733463e+01 ]
      - [ 6.11607132e+01, 2.44841266e+00, 2.24801588e+00, 6.19146843e+01,
          7.33730173e+00, 6.60515881e+00 ]
      - [ 8.85218277e+01, 3.28174615e+00, 3.88293648e+00, 8.76984100e+01,
          9.47619057e+00, 1.06964283e+01 ]
      - [ 1.04916824e+02, 2.06427217e+00, 5.11153126e+00, 1.07026466e+02,
          6.21928167e+00, 1.13081284e+01 ]
      - [ 8.13531723e+01, 3.70436502e+00, 4.50793648e+00, 8.58988113e+01,
          7.93849230e+00, 1.01726189e+01 ]
      - [ 8.89470673e+01, 4.65217400e+00, 6.92438555e+00, 9.22211685e+01,
          1.08865786e+01, 1.35179586e+01 ]
      - [ 1.13873344e+02, 4.11909246e+00, 9.44423485e+00, 1.20064270e+02,
          9.62948990e+00, 1.65179577e+01 ]
      - [ 5.04087296e+01, 2.01785707e+00, 1.24801588e+00, 5.12440491e+01,
          5.77976179e+00, 3.95238090e+00 ]
      - [ 1.03094521e+02, 2.02079391e+00, 5.77126646e+00, 1.04521736e+02,
          6.65028334e+00, 1.25085068e+01 ]
      - [ 1.02839287e+02, 5.24206352e+00, 6.21825409e+00, 1.06928574e+02,
          1.26567459e+01, 1.42321424e+01 ]
      - [ 7.68869019e+01, 3.35714293e+00, 3.55357146e+00, 7.34960327e+01,
          8.50992107e+00, 9.43055534e+00 ]
      - [ 1.02718338e+02, 1.96030247e+00, 5.50661612e+00, 1.03347824e+02,
          5.97353506e+00, 1.17655954e+01 ]
      - [ 9.64272232e+01, 3.57844996e+00, 6.77126646e+00, 8.92551956e+01,
          9.59924412e+00, 1.46351604e+01 ]
      - [ 1.25769379e+02, 4.24952745e+00, 8.72022724e+00, 1.22035919e+02,
          9.46313763e+00, 1.65425339e+01 ]
      - [ 1.08827980e+02, 1.91871452e+00, 5.67863894e+00, 1.06117203e+02,
          6.84499073e+00, 1.27069941e+01 ]
      - [ 8.00699463e+01, 1.34404540e+00, 4.02457476e+00, 7.53232498e+01,
          5.45746708e+00, 9.26654053e+00 ]
      - [ 1.00990082e+02, 5.15873003e+00, 6.59920645e+00, 9.83115082e+01,
          1.18710318e+01, 1.39761906e+01 ]
      - [ 8.95784531e+01, 1.72778833e+00, 3.63327026e+00, 8.31417770e+01,
          5.30245733e+00, 8.86956501e+00 ]
      - [ 1.14170135e+02, 3.08695650e+00, 7.97164440e+00, 1.15790169e+02,
          8.12476349e+00, 1.47769375e+01 ]
      - [ 8.11527786e+01, 2.91071439e+00, 2.86309528e+00, 8.18492050e+01,
          7.44642878e+00, 8.06349182e+00 ]
      - [ 8.82476349e+01, 1.58223057e+00, 4.33459377e+00, 8.76843109e+01,
          5.11153126e+00, 1.03119097e+01 ]
      - [ 1.02688492e+02, 4.08134937e+00, 5.50992060e+00, 9.39265900e+01,
          1.02817459e+01, 1.17757940e+01 ]
      - [ 1.01792061e+02, 2.66729689e+00, 4.42911148e+00, 1.02387520e+02,
          7.30623817e+00, 1.13610582e+01 ]
      - [ 1.02009453e+02, 3.62759924e+00, 6.94517946e+00, 9.92589798e+01,
          9.53497124e+00, 1.36502838e+01 ]
      - [ 9.92835541e+01, 3.48960304e+00, 6.30056715e+00, 9.84442368e+01,
          9.20983028e+00, 1.24952745e+01 ]
      - [ 9.31845245e+01, 6.46428585e+00, 5.99404764e+00, 9.15972214e+01,
          1.32678576e+01, 1.28035717e+01 ]
      - [ 9.80567093e+01, 2.52362943e+00, 5.23251438e+00, 1.03986771e+02,
          7.82419682e+00, 1.23459358e+01 ]
      - [ 6.02559509e+01, 2.03174615e+00, 1.08531749e+00, 5.99761887e+01,
          6.23015881e+00, 4.58134937e+00 ]
      - [ 8.33514023e+01, 7.74091387e+00, 5.01938581e+00, 8.10640182e+01,
          1.03809757e+01, 7.49792099e+00 ]
      - [ 8.63630981e+01, 4.72222233e+00, 5.66468239e+00, 8.38015900e+01,
          1.20357141e+01, 1.24543648e+01 ]
      - [ 1.01277779e+02, 6.30555534e+00, 6.16468239e+00, 9.79682541e+01,
          1.29246035e+01, 1.35178576e+01 ]
      - [ 1.14958336e+02, 5.21428585e+00, 5.79563475e+00, 1.09962303e+02,
          1.20912695e+01, 1.31111107e+01 ]
      - [ 9.88468781e+01, 2.25519848e+00, 5.06427240e+00, 9.62325134e+01,
          6.55576563e+00, 1.11606808e+01 ]
      - [ 5.58412704e+01, 3.09325385e+00, 1.11309528e+00, 5.28373032e+01,
          7.77976179e+00, 4.26984119e+00 ]
      - [ 5.43353157e+01, 2.76388884e+00, 1.97222221e+00, 5.65416679e+01,
          6.76388884e+00, 5.24007940e+00 ]
      - [ 6.31567459e+01, 1.32539678e+00, 2.29761910e+00, 6.28769836e+01,
          4.68253946e+00, 6.85119057e+00 ]
      - [ 8.34206314e+01, 3.42460322e+00, 4.82142878e+00, 8.48630981e+01,
          8.70039654e+00, 1.24980154e+01 ]
      - [ 9.13650818e+01, 6.92063475e+00, 5.80555534e+00, 9.10158768e+01,
          1.39801588e+01, 1.30436506e+01 ]
      - [ 4.99523811e+01, 1.90674603e+00, 1.71230161e+00, 4.95436516e+01,
          5.41468239e+00, 4.55158710e+00 ]
      - [ 4.61488113e+01, 2.07142854e+00, 1.39087307e+00, 5.04146843e+01,
          5.68452358e+00, 3.84126973e+00 ]
      - [ 1.15079391e+02, 2.28733468e+00, 8.04725933e+00, 1.17911156e+02,
          6.82041597e+00, 1.47315693e+01 ]
      - [ 1.02894142e+02, 2.66162562e+00, 4.79206038e+00, 9.20642700e+01,
          7.69754267e+00, 1.07844992e+01 ]
      - [ 9.65178604e+01, 4.67460299e+00, 5.99801588e+00, 9.99841232e+01,
          1.10059528e+01, 1.40059528e+01 ]
      - [ 1.06032135e+02, 2.00945187e+00, 6.66729689e+00, 9.99035950e+01,
          6.83364820e+00, 1.41304350e+01 ]
      - [ 1.08619049e+02, 6.85317469e+00, 8.28769875e+00, 1.00388885e+02,
          1.47400789e+01, 1.70714283e+01 ]
      - [ 7.75009460e+01, 1.37429106e+00, 2.92438555e+00, 7.54196625e+01,
          4.26654053e+00, 7.59357262e+00 ]
      - [ 5.02857132e+01, 2.60317469e+00, 1.39087307e+00, 4.81170616e+01,
          6.95238113e+00, 4.49603176e+00 ]
      - [ 1.22285446e+02, 3.76748586e+00, 7.94707012e+00, 1.32739136e+02,
          9.37429142e+00, 1.77069950e+01 ]
      - [ 9.23234100e+01, 6.48214293e+00, 5.60317469e+00, 9.00793686e+01,
          1.33690472e+01, 1.28750000e+01 ]
      - [ 1.08343254e+02, 5.90079355e+00, 6.97023821e+00, 1.04803574e+02,
          1.26349211e+01, 1.36507940e+01 ]
      - [ 7.21904755e+01, 4.24404764e+00, 2.81547618e+00, 7.00059509e+01,
          1.02261906e+01, 8. ]
      - [ 9.75813522e+01, 4.68650770e+00, 6.94246054e+00, 9.25059509e+01,
          1.30039682e+01, 1.47936506e+01 ]
      - [ 1.22122871e+02, 3.36105871e+00, 9.64272213e+00, 1.22147446e+02,
          8.39508533e+00, 1.74328918e+01 ]
      - [ 1.09839317e+02, 2.72589803e+00, 4.89035940e+00, 1.05880905e+02,
          7.73913050e+00, 1.14896030e+01 ]
      - [ 1.08228737e+02, 2.41020799e+00, 4.91493368e+00, 1.08897919e+02,
          7.68809080e+00, 1.19603024e+01 ]
      - [ 1.34266541e+02, 3.79395080e+00, 9.24385643e+00, 1.32001892e+02,
          9.24763680e+00, 1.63497162e+01 ]
      - [ 1.06886581e+02, 2.51417780e+00, 7.89224958e+00, 9.58109665e+01,
          7.03024578e+00, 1.36408319e+01 ]
      - [ 1.31395081e+02, 2.83742905e+00, 7.29867697e+00, 1.30338379e+02,
          7.95463133e+00, 1.41153116e+01 ]
      - [ 5.45615082e+01, 2.88293648e+00, 1.75793648e+00, 56.,
          6.53373003e+00, 3.89484119e+00 ]
      - [ 5.97063484e+01, 3.27182531e+00, 1.00595236e+00, 5.89603157e+01,
          8.28571415e+00, 4.16269827e+00 ]
      - [ 9.77162704e+01, 7.88293648e+00, 5.71031761e+00, 1.00319443e+02,
          1.46626987e+01, 1.44186506e+01 ]
      - [ 5.53194427e+01, 3.49404764e+00, 1.99801588e+00, 5.52916679e+01,
          8.36309528e+00, 5.33531761e+00 ]
      - [ 8.61269836e+01, 3.44642854e+00, 4.29563475e+00, 7.98908768e+01,
          8.38293648e+00, 1.00634918e+01 ]
      - [ 9.22551956e+01, 3.00378060e+00, 7.45746708e+00, 8.97580338e+01,
          8.22495270e+00, 1.46030245e+01 ]
      - [ 9.39623032e+01, 4.12301588e+00, 6.83730173e+00, 8.83412704e+01,
          9.56150818e+00, 1.40515871e+01 ]
      - [ 1.09158791e+02, 1.98865783e+00, 6.39319468e+00, 1.11022682e+02,
          6.72022676e+00, 1.29035921e+01 ]
      - [ 1.15499054e+02, 4.07939529e+00, 6.97731590e+00, 1.14948959e+02,
          9.21928120e+00, 1.43686199e+01 ]
      - [ 9.42930069e+01, 1.35160685e+00, 4.08695650e+00, 9.34234390e+01,
          5.66729689e+00, 1.01776934e+01 ]
      - [ 1.28376175e+02, 2.76748586e+00, 6.50850677e+00, 1.19294899e+02,
          7.82608700e+00, 1.41209831e+01 ]
      - [ 1.17217392e+02, 3.90926266e+00, 8.79962158e+00, 1.17623817e+02,
          9.60491467e+00, 1.57277880e+01 ]
      - [ 1.04319443e+02, 6.78373003e+00, 6.35317469e+00, 9.72777786e+01,
          1.46250000e+01, 1.41051588e+01 ]
      - [ 6.52876968e+01, 3.06349206e+00, 2.32539678e+00, 6.38750000e+01,
          8.05952358e+00, 6.90674591e+00 ]
      - [ 7.18432541e+01, 4.47817469e+00, 2.97023821e+00, 7.47142868e+01,
          9.19841290e+00, 7.55357122e+00 ]
      - [ 1.03033730e+02, 4.60515881e+00, 6.21428585e+00, 9.41269836e+01,
          1.05734129e+01, 1.27242060e+01 ]
      - [ 8.41388855e+01, 3.96230149e+00, 6.27777767e+00, 8.47876968e+01,
          9.21031761e+00, 1.39543648e+01 ]
      - [ 8.54126968e+01, 4.31150770e+00, 4.53571415e+00, 8.82797623e+01,
          9.25000000e+00, 1.06547623e+01 ]
      - [ 6.22638893e+01, 4.42460299e+00, 1.68650794e+00, 6.37876968e+01,
          9.99007893e+00, 4.71031761e+00 ]
      - [ 9.18412704e+01, 4., 6.10714293e+00, 8.58511887e+01,
          9.83928585e+00, 1.31607141e+01 ]
      - [ 5.69226189e+01, 2.99404764e+00, 9.24603164e-01, 5.57777786e+01,
          8.10714245e+00, 3.19841266e+00 ]
      - [ 9.70453720e+01, 2.50472593e+00, 4.95652151e+00, 9.40775070e+01,
          6.76937628e+00, 1.09905481e+01 ]
      - [ 8.72420654e+01, 3.44841266e+00, 4.20833349e+00, 8.91726227e+01,
          9.66468239e+00, 1.16904764e+01 ]
      - [ 6.59265900e+01, 1.40079367e+00, 2.32341266e+00, 6.49404755e+01,
          4.90079355e+00, 7.22222233e+00 ]
      - [ 8.15406418e+01, 1.48015118e+00, 3.05103970e+00, 7.97315674e+01,
          5.65028334e+00, 8.26086998e+00 ]
      - [ 1.02436676e+02, 2.93950844e+00, 7.56521749e+00, 9.82778854e+01,
          7.58223057e+00, 1.34650288e+01 ]
      - [ 5.38234138e+01, 3.65873027e+00, 3.28769851e+00, 5.45515862e+01,
          8.10714245e+00, 8.16468239e+00 ]
      - [ 1.24379959e+02, 3.91493392e+00, 7.86011362e+00, 1.23325142e+02,
          9.40453720e+00, 1.48393192e+01 ]
      - [ 1.09726189e+02, 5.85119057e+00, 6.38095236e+00, 1.05767860e+02,
          1.36785717e+01, 1.41666670e+01 ]
      - [ 1.04966270e+02, 7.11706352e+00, 6.91865063e+00, 1.00900795e+02,
          1.45158730e+01, 1.41845236e+01 ]
      - [ 1.08119095e+02, 2.50094509e+00, 4.54442358e+00, 1.02604912e+02,
          7.75047255e+00, 1.06956520e+01 ]
      - [ 9.85671082e+01, 2.79017019e+00, 5.16824198e+00, 9.20245743e+01,
          8.12287331e+00, 1.12287331e+01 ]
      - [ 5.97003975e+01, 3.18253970e+00, 2.79761910e+00, 6.31111107e+01,
          7.92261887e+00, 6.62698412e+00 ]
      - [ 9.28752365e+01, 2.00567102e+00, 3.79584122e+00, 8.32476349e+01,
          6.14177704e+00, 9.73723984e+00 ]
      - [ 9.74662704e+01, 6.81547642e+00, 7.01587296e+00, 9.90873032e+01,
          1.35535717e+01, 1.30357141e+01 ]
      - [ 8.59829865e+01, 1.56521738e+00, 2.44801521e+00, 8.25274124e+01,
          5.13610601e+00, 7.13232517e+00 ]
      - [ 1.20977318e+02, 4.56899834e+00, 1.07126656e+01, 1.12279770e+02,
          1.04461250e+01, 1.82570896e+01 ]
      - [ 9.90575409e+01, 4.49007940e+00, 6.23809528e+00, 1.00757935e+02,
          1.10833330e+01, 1.35734129e+01 ]
      - [ 9.66964264e+01, 5.60119057e+00, 5.82738113e+00, 9.25138855e+01,
          1.17281742e+01, 1.35952377e+01 ]
      - [ 5.22916679e+01, 2.84523821e+00, 1.41666663e+00, 5.04444427e+01,
          7.39285707e+00, 3.76587296e+00 ]
      - [ 9.65773773e+01, 4.70833349e+00, 6.08134937e+00, 9.56587296e+01,
          1.14226189e+01, 1.31150789e+01 ]
      - [ 1.30867676e+02, 4.11342144e+00, 8.90170097e+00, 1.29597351e+02,
          1.03950853e+01, 1.69035912e+01 ]
      - [ 8.88034058e+01, 1.60113418e+00, 3.68430996e+00, 7.66880875e+01,
          5.67296791e+00, 8.85255241e+00 ]
      - [ 9.82986755e+01, 1.61058605e+00, 4.73723984e+00, 9.21928177e+01,
          5.04347849e+00, 1.03100185e+01 ]
      - [ 7.31429520e+01, 7.25450850e+00, 8.79103088e+00, 7.20372238e+01,
          1.07214880e+01, 1.24487352e+01 ]
      - [ 7.26071396e+01, 4.22420645e+00, 5.28571415e+00, 7.25376968e+01,
          9.75000000e+00, 1.14801588e+01 ]
      - [ 9.48128510e+01, 2.94517970e+00, 6.29489613e+00, 9.26427231e+01,
          8.27410221e+00, 1.23667297e+01 ]
      - [ 5.89662704e+01, 3.52579355e+00, 2.53174615e+00, 6.17162704e+01,
          9.48214245e+00, 8.05952358e+00 ]
      - [ 7.19742050e+01, 4.56547642e+00, 2.79960322e+00, 6.86666641e+01,
          9.19642830e+00, 7.71230173e+00 ]
      - [ 1.07843102e+02, 2.71833658e+00, 5.43478251e+00, 1.01444237e+02,
          7.90359163e+00, 1.21587906e+01 ]
      - [ 1.10686203e+02, 3.10585999e+00, 8.81663513e+00, 1.05155006e+02,
          8.55198479e+00, 1.66086960e+01 ]
      - [ 5.93809509e+01, 3.23015881e+00, 1.21031749e+00, 6.27182541e+01,
          8.75595284e+00, 4.45436525e+00 ]
      - [ 8.42480164e+01, 4.49007940e+00, 4.28769827e+00, 8.23055573e+01,
          1.00575399e+01, 1.05456352e+01 ]
      - [ 5.77400780e+01, 2.92658734e+00, 1.41666663e+00, 5.76349220e+01,
          7.34126997e+00, 4.65674591e+00 ]
      - [ 9.15119019e+01, 4.70634937e+00, 4.80753946e+00, 9.03690491e+01,
          1.04583330e+01, 1.13611107e+01 ]
      - [ 5.96865082e+01, 4.82341290e+00, 2.15476179e+00, 6.02797623e+01,
          9.79761887e+00, 6.09126997e+00 ]
      - [ 9.39246063e+01, 6.65674591e+00, 5.76785707e+00, 8.98511887e+01,
          1.37043648e+01, 1.38234129e+01 ]
      - [ 1.22865784e+02, 2.57277894e+00, 7.06616259e+00, 1.18448013e+02,
          8.44423485e+00, 1.59546318e+01 ]
      - [ 9.13516083e+01, 2.77126646e+00, 5.60302448e+00, 8.51795807e+01,
          8.07750511e+00, 1.30869570e+01 ]
      - [ 8.41591263e+01, 6.27309465e+00, 6.44285870e+00, 8.17816391e+01,
          8.82303524e+00, 8.89457130e+00 ]
      - [ 8.30912704e+01, 3.21825385e+00, 4.51785707e+00, 7.76607132e+01,
          8.42857170e+00, 1.03214283e+01 ]
      - [ 1.03519852e+02, 2.44801521e+00, 5.91304350e+00, 9.21115341e+01,
          6.50661612e+00, 1.18960304e+01 ]
      - [ 9.98393173e+01, 2.26843095e+00, 5.48204136e+00, 1.00020798e+02,
          6.64272213e+00, 1.22514181e+01 ]
      - [ 8.94702377e+01, 6.13888884e+00, 6.64285707e+00, 8.79623032e+01,
          1.29206352e+01, 1.43452377e+01 ]
      - [ 4.69404755e+01, 2.33928561e+00, 9.74206328e-01, 4.70793648e+01,
          6.73015881e+00, 3.58134913e+00 ]
      - [ 8.44714661e+01, 6.77272081e+00, 5.67265654e+00, 8.15712814e+01,
          9.21758652e+00, 7.55049133e+00 ]
      - [ 9.34325409e+01, 5.40674591e+00, 4.77380943e+00, 9.35992050e+01,
          1.16706352e+01, 1.13988094e+01 ]
      - [ 9.19801559e+01, 5.77182531e+00, 5.43253946e+00, 8.61587296e+01,
          1.22817459e+01, 1.19742060e+01 ]
      - [ 7.82559509e+01, 2.86904764e+00, 4.26587296e+00, 8.28472214e+01,
          7.14484119e+00, 1.02876987e+01 ]
      - [ 8.25853195e+01, 4.12500000e+00, 4.34126997e+00, 7.60158768e+01,
          9.50793648e+00, 1.02817459e+01 ]
      - [ 1.09746689e+02, 2.21928167e+00, 6.00945187e+00, 1.17567108e+02,
          7.22495270e+00, 1.32325144e+01 ]
      - [ 5.62321434e+01, 2.83730149e+00, 1.51388884e+00, 6.08710327e+01,
          6.69444466e+00, 3.63492060e+00 ]
      - [ 1.16990547e+02, 3.52173924e+00, 9.07561398e+00, 1.22914932e+02,
          8.15500927e+00, 1.58695650e+01 ]
      - [ 9.83005676e+01, 3.94139886e+00, 8.43478298e+00, 9.43856354e+01,
          8.47258949e+00, 1.51682415e+01 ]
      - [ 1.02366730e+02, 3.24196601e+00, 7.79206038e+00, 9.25822296e+01,
          7.92816639e+00, 1.46351604e+01 ]
      - [ 1.03251984e+02, 4.64285707e+00, 5.97619057e+00, 1.06297623e+02,
          9.98214245e+00, 1.29126987e+01 ]
      - [ 6.33055573e+01, 1.60119045e+00, 2.09523821e+00, 6.48412704e+01,
          5.91071415e+00, 6.59523821e+00 ]
      - [ 1.10468811e+02, 2.69943285e+00, 4.79584122e+00, 1.00179581e+02,
          8.06049156e+00, 1.16219282e+01 ]
      - [ 1.37255203e+02, 3.75047255e+00, 9.85255241e+00, 1.31907379e+02,
          9.57088852e+00, 1.72041588e+01 ]
      - [ 7.51587448e+01, 4.52200603e+00, 3.96266580e+00, 7.29816208e+01,
          7.79019260e+00, 7.08768654e+00 ]
      - [ 6.31666679e+01, 3.48412704e+00, 1.95039678e+00, 6.30853157e+01,
          8.83134937e+00, 5.32738113e+00 ]
      - [ 9.84007950e+01, 7.61706352e+00, 5.93055534e+00, 9.91706314e+01,
          1.52956352e+01, 1.37817459e+01 ]
      - [ 4.46130943e+01, 1.79761910e+00, 1.34126985e+00, 4.86984138e+01,
          5.92857122e+00, 3.63095236e+00 ]
      - [ 9.84781723e+01, 6.07539701e+00, 6.48412704e+00, 9.75396805e+01,
          1.22638893e+01, 1.45932541e+01 ]
      - [ 9.77460327e+01, 7.10119057e+00, 6.65079355e+00, 9.57103195e+01,
          1.45833330e+01, 1.52182541e+01 ]
      - [ 1.17795837e+02, 2.99432898e+00, 7.22873354e+00, 1.14045372e+02,
          7.66351604e+00, 1.41512289e+01 ]
      - [ 1.03115311e+02, 2.51039696e+00, 5.48015118e+00, 8.81663513e+01,
          7.83364820e+00, 1.25406427e+01 ]
      - [ 7.99940491e+01, 2.99404764e+00, 3.49603176e+00, 7.55218277e+01,
          7.88888884e+00, 8.23412704e+00 ]
      - [ 9.61924591e+01, 3.42857146e+00, 4.83134937e+00, 9.25297623e+01,
          8.32341290e+00, 1.09087305e+01 ]
      - [ 1.12478264e+02, 2.17391300e+00, 6.09451818e+00, 9.79413986e+01,
          6.55954647e+00, 1.20964079e+01 ]
      - [ 86., 7.81150770e+00, 5.46825409e+00, 8.38174591e+01,
          1.45000000e+01, 1.20178576e+01 ]
      - [ 6.16230164e+01, 1.50000000e+00, 1.80357146e+00, 6.18730164e+01,
          5.43650770e+00, 6.10119057e+00 ]
      - [ 1.02021828e+02, 5.85515881e+00, 6.31150770e+00, 1.05384918e+02,
          1.27678576e+01, 1.42281742e+01 ]
      - [ 1.10185257e+02, 2.71266532e+00, 7.45935726e+00, 9.75841217e+01,
          8.27221203e+00, 1.29924383e+01 ]
      - [ 1.12406425e+02, 2.48960304e+00, 5.61436653e+00, 9.63667297e+01,
          7.48960304e+00, 1.29886580e+01 ]
      - [ 5.01190491e+01, 2.80357146e+00, 1.17857146e+00, 5.25753975e+01,
          7.58730173e+00, 4.29761887e+00 ]
      - [ 8.50586014e+01, 1.28733456e+00, 2.62381864e+00, 8.14366760e+01,
          5.85066175e+00, 7.79395103e+00 ]
      - [ 1.24822304e+02, 3.67863894e+00, 6.74858236e+00, 1.24674858e+02,
          9.13988686e+00, 1.34763708e+01 ]
      - [ 9.56502838e+01, 2.81852555e+00, 4.89035940e+00, 9.74801483e+01,
          8.44045353e+00, 1.13289223e+01 ]
      - [ 1.31818527e+02, 2.35538745e+00, 6.31001902e+00, 1.19523628e+02,
          6.77693748e+00, 1.36068048e+01 ]
      - [ 1.02907372e+02, 2.95841217e+00, 7.25141764e+00, 9.67315674e+01,
          7.67107773e+00, 1.40491495e+01 ]
      - [ 1.01843254e+02, 4.86706352e+00, 6.39285707e+00, 8.98829346e+01,
          1.13988094e+01, 1.38670635e+01 ]
      - [ 1.20427223e+02, 4.00567102e+00, 9.38563347e+00, 1.29691864e+02,
          9.56332684e+00, 1.55803404e+01 ]
      - [ 9.26767502e+01, 1.88468814e+00, 4.05671072e+00, 8.15727768e+01,
          5.80151224e+00, 9.72022724e+00 ]
      - [ 6.21369057e+01, 2.48611116e+00, 1.20634925e+00, 6.24365082e+01,
          6.93650770e+00, 4.74007940e+00 ]
      - [ 1.13531189e+02, 3.09829879e+00, 7.17769384e+00, 1.11468811e+02,
          8.14744759e+00, 1.39130430e+01 ]
      - [ 9.55803375e+01, 4.78828001e+00, 7.06994343e+00, 9.93345947e+01,
          1.06729679e+01, 1.37920609e+01 ]
      - [ 1.12669189e+02, 2.74858212e+00, 6.01890373e+00, 1.11204163e+02,
          7.82041597e+00, 1.25992441e+01 ]
      - [ 8.88591232e+01, 3.65476179e+00, 3.89880943e+00, 8.68591232e+01,
          8.65674591e+00, 9.98412704e+00 ]
      - [ 1.06700394e+02, 6.40277767e+00, 5.95634937e+00, 1.01684525e+02,
          1.33769846e+01, 1.35277777e+01 ]
      - [ 8.08809509e+01, 4.30753946e+00, 5.23611116e+00, 8.06051559e+01,
          1.01825399e+01, 1.25694447e+01 ]
      - [ 9.38998108e+01, 2.05103970e+00, 4.43667316e+00, 8.60056686e+01,
          6.68241978e+00, 1.08393192e+01 ]
      - [ 8.30575409e+01, 3.12103176e+00, 4.27182531e+00, 7.81468277e+01,
          8.16071415e+00, 9.37500000e+00 ]
      - [ 7.35207977e+01, 5.83118010e+00, 4.61574459e+00, 7.08967209e+01,
          7.85480261e+00, 6.35103178e+00 ]
      - [ 5.09900780e+01, 2.73015881e+00, 1.04365075e+00, 5.07460327e+01,
          6.31150770e+00, 3.62698412e+00 ]
      - [ 1.04492065e+02, 8.17261887e+00, 5.18253946e+00, 9.51984100e+01,
          1.49682541e+01, 1.24761906e+01 ]
      - [ 7.91646805e+01, 4.52579355e+00, 3.35515881e+00, 7.66507950e+01,
          1.01468258e+01, 7.96031761e+00 ]
      - [ 9.55236282e+01, 2.22306228e+00, 3.12854433e+00, 9.05954666e+01,
          7.06049156e+00, 9.31758022e+00 ]
      - [ 1.35945175e+02, 3.85066152e+00, 9.55576515e+00, 1.33559540e+02,
          9.32514191e+00, 1.65708885e+01 ]
      - [ 1.12162567e+02, 1.98865783e+00, 6.66540623e+00, 1.12758034e+02,
          6.19848776e+00, 1.32098303e+01 ]
      - [ 5.27896843e+01, 3.74206352e+00, 2.05753970e+00, 5.70793648e+01,
          8.02777767e+00, 5.55357122e+00 ]
      - [ 1.22514175e+02, 3.15879011e+00, 7.92249537e+00, 1.28391312e+02,
          7.80151224e+00, 1.46975422e+01 ]
      - [ 9.40775070e+01, 2.38752365e+00, 5.13043499e+00, 9.92022705e+01,
          6.97731590e+00, 1.17826090e+01 ]
      - [ 8.73789673e+01, 6.38293648e+00, 5.78174591e+00, 8.83412704e+01,
          1.33313494e+01, 1.33035717e+01 ]
      - [ 1.01847221e+02, 3.91468263e+00, 5.98412704e+00, 9.28472214e+01,
          1.00734129e+01, 1.38869047e+01 ]
      - [ 6.15039673e+01, 1.71825397e+00, 2.67857146e+00, 6.01309509e+01,
          5.19246054e+00, 6.91865063e+00 ]
      - [ 8.33214264e+01, 2.77579355e+00, 3.31547618e+00, 7.90674591e+01,
          7.75793648e+00, 8.10912704e+00 ]
      - [ 1.27742912e+02, 3.94896030e+00, 9.89603043e+00, 1.24366730e+02,
          9.43100166e+00, 1.65879021e+01 ]
      - [ 9.83392868e+01, 3.98611116e+00, 6.73214293e+00, 9.30992050e+01,
          9.85912704e+00, 1.42738094e+01 ]
      - [ 9.14952774e+01, 2.30245757e+00, 5.12665415e+00, 8.42665405e+01,
          6.57466936e+00, 1.11058598e+01 ]
      - [ 5.66547623e+01, 2.61111116e+00, 1.22222221e+00, 5.92976189e+01,
          7.22023821e+00, 4.45634937e+00 ]
      - [ 9.63345947e+01, 2.41776943e+00, 5.23062372e+00, 9.13894119e+01,
          7.02646494e+00, 1.17334595e+01 ]
      - [ 8.68960266e+01, 2.17202258e+00, 4.99432898e+00, 8.05179596e+01,
          5.41398859e+00, 9.01701355e+00 ]
      - [ 8.30588531e+01, 7.31395197e+00, 7.56529951e+00, 8.09510498e+01,
          1.10534887e+01, 1.13705883e+01 ]
      - [ 1.05744804e+02, 2.45746684e+00, 5.10207939e+00, 1.00270325e+02,
          7.29678631e+00, 1.07126656e+01 ]
      - [ 9.90302429e+01, 2.25330806e+00, 7.04158783e+00, 1.00599243e+02,
          6.91304350e+00, 1.37258978e+01 ]
      - [ 1.05701324e+02, 2.15879011e+00, 4.79017019e+00, 9.76691895e+01,
          7.34026480e+00, 1.13270321e+01 ]
      - [ 7.22361145e+01, 2.91269851e+00, 2.44246030e+00, 6.98869019e+01,
          7.76190472e+00, 7.32738113e+00 ]
      - [ 1.17094521e+02, 2.79206038e+00, 7.15500927e+00, 1.17780716e+02,
          7.95085049e+00, 1.44952745e+01 ]
      - [ 8.41758041e+01, 2.76370502e+00, 3.62759924e+00, 7.86162567e+01,
          8.19848728e+00, 9.19848728e+00 ]
      - [ 1.19859123e+02, 5.00198412e+00, 7.56746054e+00, 1.22204369e+02,
          1.23571424e+01, 1.71468258e+01 ]
      - [ 1.03612480e+02, 4.03780699e+00, 8.30245781e+00, 9.36843109e+01,
          1.00302458e+01, 1.60302448e+01 ]
      - [ 1.01603172e+02, 6.21031761e+00, 5.52976179e+00, 9.55555573e+01,
          1.23333330e+01, 1.20158730e+01 ]
      - [ 8.58571396e+01, 4.34325409e+00, 6.30357122e+00, 8.35119019e+01,
          1.07341270e+01, 1.34662695e+01 ]
      - [ 7.42202377e+01, 4.78571415e+00, 2.22619057e+00, 7.25972214e+01,
          1.09900789e+01, 7.48015881e+00 ]
      - [ 1.06557655e+02, 1.40831757e+00, 5.15879011e+00, 9.76238174e+01,
          5.43478251e+00, 1.16446123e+01 ]
      - [ 7.82678604e+01, 2.76785707e+00, 4.06349230e+00, 7.44404755e+01,
          7.09325409e+00, 9.75396824e+00 ]
      - [ 1.04027779e+02, 7.36507940e+00, 7.77976179e+00, 1.01452377e+02,
          1.41825399e+01, 1.58452377e+01 ]
      - [ 1.16606804e+02, 3.16635156e+00, 8.12665367e+00, 1.21663513e+02,
          8.48582268e+00, 1.45614367e+01 ]
      - [ 5.85674591e+01, 2.49206352e+00, 1.50793648e+00, 5.86865082e+01,
          6.91269827e+00, 4.42063475e+00 ]
      - [ 9.42986755e+01, 1.68809068e+00, 4.98487711e+00, 8.00491486e+01,
          5.56143665e+00, 9.72589779e+00 ]
      - [ 1.14783730e+02, 4.80753946e+00, 7.89682531e+00, 1.12039680e+02,
          1.06587305e+01, 1.61706352e+01 ]
      - [ 8.77440491e+01, 3.72420645e+00, 6.08928585e+00, 8.63134918e+01,
          9.41071415e+00, 1.30515871e+01 ]
      - [ 1.06947067e+02, 4.40453672e+00, 7.69754267e+00, 1.01871452e+02,
          1.06843100e+01, 1.48412094e+01 ]
      - [ 1.00130432e+02, 1.80718338e+00, 6.37807178e+00, 9.78317566e+01,
          6.65784502e+00, 1.30964079e+01 ]
      - [ 9.95897903e+01, 3.42533088e+00, 4.96975422e+00, 9.10056686e+01,
          8.20983028e+00, 1.14196596e+01 ]
      - [ 1.17321358e+02, 3.44612479e+00, 7.10586023e+00, 120.,
          8.03969765e+00, 1.41493387e+01 ]
      - [ 8.94612503e+01, 3.14555764e+00, 4.65217400e+00, 8.26975403e+01,
          7.59357262e+00, 1.16086960e+01 ]
      - [ 8.45179596e+01, 2.64650273e+00, 4.16257095e+00, 8.58298645e+01,
          7.30245733e+00, 1.12003784e+01 ]
      - [ 9.32380981e+01, 7.07738113e+00, 4.87698412e+00, 9.16329346e+01,
          1.31646824e+01, 1.08075399e+01 ]
      - [ 8.88075409e+01, 5.01388884e+00, 4.15277767e+00, 8.65019836e+01,
          1.17321424e+01, 1.03492060e+01 ]
      - [ 4.75456352e+01, 2.68253970e+00, 1.32539678e+00, 4.78015862e+01,
          7.24404764e+00, 4.37103176e+00 ]
      - [ 9.19642868e+01, 7.02380943e+00, 5.53769827e+00, 9.42003937e+01,
          1.40357141e+01, 1.26607141e+01 ]
      - [ 6.43293686e+01, 2.23611116e+00, 2.19246030e+00, 6.47579346e+01,
          6.94047642e+00, 5.84722233e+00 ]
      - [ 6.05972214e+01, 1.80952382e+00, 2.31944442e+00, 5.99920616e+01,
          5.44047642e+00, 6.70039701e+00 ]
      - [ 6.12123032e+01, 3.29563498e+00, 1.57341266e+00, 6.32579384e+01,
          8.14484119e+00, 4.56547642e+00 ]
      - [ 9.84206314e+01, 8.02579403e+00, 6.25396824e+00, 1.00132935e+02,
          1.65456352e+01, 1.32896824e+01 ]
      - [ 1.09495277e+02, 3.32325149e+00, 7.66918707e+00, 1.01697540e+02,
          9.29111576e+00, 1.40982990e+01 ]
      - [ 1.02714287e+02, 4.78769827e+00, 3.88888884e+00, 9.66150818e+01,
          1.14722223e+01, 1.03829365e+01 ]
      - [ 9.02738113e+01, 5.83928585e+00, 6.31944466e+00, 9.32420654e+01,
          1.26626987e+01, 1.36666670e+01 ]
      - [ 1.04587898e+02, 3.07372403e+00, 6.91682434e+00, 1.03516068e+02,
          7.88846874e+00, 1.41323252e+01 ]
      - [ 7.23730164e+01, 3.43253970e+00, 3.50992060e+00, 6.84345245e+01,
          8.69642830e+00, 8.66666698e+00 ]
      - [ 1.08327034e+02, 2.36861992e+00, 5.64461231e+00, 1.03177696e+02,
          7.17958403e+00, 1.22287331e+01 ]
      - [ 9.79545898e+01, 6.00667620e+00, 6.22157383e+00, 9.84721069e+01,
          1.01602154e+01, 1.04893036e+01 ]
      - [ 1.03958412e+02, 1.96786392e+00, 6.09829855e+00, 1.05899811e+02,
          6.64461231e+00, 1.38147449e+01 ]
      - [ 5.79305573e+01, 2.73611116e+00, 1.45039678e+00, 6.04662704e+01,
          7.53373003e+00, 4.66468239e+00 ]
      - [ 1.07378075e+02, 3.04347825e+00, 5.60491514e+00, 9.34990540e+01,
          7.42533064e+00, 1.30529299e+01 ]
      - [ 8.68431015e+01, 2.24763703e+00, 5.00189018e+00, 8.55330811e+01,
          6.07939529e+00, 1.05784502e+01 ]
      - [ 8.39305573e+01, 4.94841290e+00, 4.98611116e+00, 8.46984100e+01,
          1.16726189e+01, 1.19861107e+01 ]
      - [ 9.03313522e+01, 5.64285707e+00, 5.50000000e+00, 9.18115082e+01,
          1.22619047e+01, 1.19305553e+01 ]
      - [ 5.27797623e+01, 2.88888884e+00, 1.51587307e+00, 5.13730164e+01,
          6.91468239e+00, 4.54166651e+00 ]
      - [ 9.63412704e+01, 5.86904764e+00, 7.12500000e+00, 9.33670654e+01,
          1.31825399e+01, 1.53015871e+01 ]
      - [ 1.07158730e+02, 6.68650770e+00, 7.51190472e+00, 1.08688492e+02,
          1.32777777e+01, 1.61884918e+01 ]
      - [ 1.05100189e+02, 3.06049156e+00, 6.57277870e+00, 9.38846893e+01,
          8.44801521e+00, 1.36862001e+01 ]
      - [ 1.01839317e+02, 3.15122867e+00, 6.63516045e+00, 9.01039734e+01,
          7.88468790e+00, 1.26219282e+01 ]
      - [ 1.00906746e+02, 4.46626997e+00, 5.71230173e+00, 9.73670654e+01,
          1.07083330e+01, 1.29027777e+01 ]
      - [ 5.65634918e+01, 3.17460322e+00, 2.66468263e+00, 5.46865082e+01,
          8.21626949e+00, 6.18055534e+00 ]
      - [ 9.97638855e+01, 9.50000000e+00, 6.79166651e+00, 1.05974205e+02,
          1.66686516e+01, 1.33214283e+01 ]
      - [ 6.37083321e+01, 3.72817469e+00, 1.78373015e+00, 6.74821396e+01,
          8.94841290e+00, 6.25000000e+00 ]
      - [ 1.21697540e+02, 3.40642715e+00, 7.87901688e+00, 1.11831757e+02,
          8.28166389e+00, 1.47372398e+01 ]
      - [ 9.89792023e+01, 3.04347825e+00, 7.34971666e+00, 8.96446152e+01,
          8.45368576e+00, 1.48355389e+01 ]
      - [ 7.58611145e+01, 2.80555558e+00, 3.27380943e+00, 7.28888855e+01,
          7.46428585e+00, 8.32936478e+00 ]
      - [ 4.72142868e+01, 2.78571439e+00, 1.60317457e+00, 4.56329384e+01,
          6.92857122e+00, 4.29761887e+00 ]
      - [ 1.22928169e+02, 2.77126646e+00, 6.84688091e+00, 1.19126656e+02,
          7.59546328e+00, 1.39149342e+01 ]
      - [ 6.28690491e+01, 2.58333325e+00, 1.43452382e+00, 6.04702377e+01,
          7.06150770e+00, 4.05753946e+00 ]
      - [ 8.23705139e+01, 1.85822308e+00, 4.48204136e+00, 8.13988647e+01,
          6.08317566e+00, 1.06956520e+01 ]
      - [ 1.32935730e+02, 4.00945187e+00, 8.46691895e+00, 1.30894135e+02,
          9.44423485e+00, 1.66068058e+01 ]
      - [ 9.87618179e+01, 2.82419658e+00, 8.39130402e+00, 8.64291153e+01,
          7.45179605e+00, 1.33308125e+01 ]
      - [ 9.05595245e+01, 5.98015881e+00, 5.55357122e+00, 8.93511887e+01,
          1.28849211e+01, 1.28888893e+01 ]
      - [ 1.38928162e+02, 3.59168243e+00, 7.68998098e+00, 1.34608688e+02,
          9.74858189e+00, 1.58449907e+01 ]
      - [ 1.07396973e+02, 2.12287331e+00, 5.69943285e+00, 1.08841209e+02,
          6.75236273e+00, 1.35916824e+01 ]
      - [ 1.02153122e+02, 2.72778821e+00, 6.10207939e+00, 9.27107773e+01,
          7.59735346e+00, 1.31342154e+01 ]
      - [ 1.00017014e+02, 3.48393202e+00, 6.79206038e+00, 8.99413986e+01,
          9.15689945e+00, 1.33950853e+01 ]
      - [ 1.08341270e+02, 5.25595236e+00, 6.66269827e+00, 1.08363098e+02,
          1.30595236e+01, 1.50039682e+01 ]
      - [ 1.01071831e+02, 3.45746684e+00, 6.98676729e+00, 1.00584122e+02,
          7.74669170e+00, 1.30964079e+01 ]
      - [ 1.00724205e+02, 4.69841290e+00, 5.31349230e+00, 9.86547623e+01,
          1.17480154e+01, 1.18888893e+01 ]
      - [ 6.91150818e+01, 4.02182531e+00, 1.87301588e+00, 7.50138855e+01,
          9.10714245e+00, 6.19841290e+00 ]
      - [ 1.24351608e+02, 2.65217400e+00, 5.69565201e+00, 1.21763702e+02,
          7.53686190e+00, 1.28487711e+01 ]
      - [ 1.09418648e+02, 6.41269827e+00, 7.19841290e+00, 1.11424606e+02,
          1.40833330e+01, 1.59087305e+01 ]
      - [ 9.22380981e+01, 6.30952358e+00, 5.52976179e+00, 9.01964264e+01,
          1.23769846e+01, 1.29623013e+01 ]
      - [ 9.89054794e+01, 2.58790159e+00, 3.72778821e+00, 9.06294861e+01,
          7.53119087e+00, 9.14744759e+00 ]
      - [ 1.03781746e+02, 5.37896824e+00, 6.87896824e+00, 1.04686508e+02,
          1.14642859e+01, 1.45357141e+01 ]
      - [ 9.38789673e+01, 4.66071415e+00, 5.45238113e+00, 9.22817459e+01,
          1.04880953e+01, 1.15714283e+01 ]
      - [ 1.10051041e+02, 2.58790159e+00, 6.09640837e+00, 1.05926277e+02,
          7.39508486e+00, 1.23081284e+01 ]
      - [ 9.80694427e+01, 5.10714293e+00, 6.66468239e+00, 9.39384918e+01,
          1.08253965e+01, 1.34424601e+01 ]
      - [ 9.90907364e+01, 1.82986772e+00, 5.80529308e+00, 1.04884689e+02,
          6.80151224e+00, 1.33516064e+01 ]
      - [ 1.32540649e+02, 2.30245757e+00, 6.37051058e+00, 1.28930054e+02,
          7.27221155e+00, 1.53251419e+01 ]
      - [ 9.71739120e+01, 2.57655954e+00, 5.03969765e+00, 1.00618149e+02,
          8.09262753e+00, 1.23100185e+01 ]
      - [ 5.07559509e+01, 2.75000000e+00, 1.38492060e+00, 5.17321434e+01,
          6.72222233e+00, 4.02182531e+00 ]
      - [ 1.05001892e+02, 2.61814737e+00, 5.66918707e+00, 9.11890335e+01,
          7.59924364e+00, 1.26748581e+01 ]
      - [ 8.32079391e+01, 1.84877121e+00, 4.76559544e+00, 8.56975403e+01,
          6.31947088e+00, 1.01984873e+01 ]
      - [ 5.95912704e+01, 2.78174615e+00, 1.97023809e+00, 6.00515862e+01,
          6.74404764e+00, 4.90079355e+00 ]
      - [ 5.83115082e+01, 2.91666675e+00, 2.23809528e+00, 6.07916679e+01,
          7.83134937e+00, 5.60515881e+00 ]
      - [ 1.26260872e+02, 3.28544426e+00, 1.10302458e+01, 1.15962196e+02,
          8.20983028e+00, 1.84706993e+01 ]
      - [ 1.16207939e+02, 4.03213596e+00, 8.91304302e+00, 1.21708885e+02,
          9.40831757e+00, 1.68676758e+01 ]
      - [ 1.00513885e+02, 4.48015881e+00, 5.98214293e+00, 9.62083359e+01,
          1.03115082e+01, 1.15119047e+01 ]
      - [ 1.10722115e+02, 2.01323247e+00, 5.08884668e+00, 1.07185257e+02,
          6.55387545e+00, 1.20888472e+01 ]
      - [ 1.24173912e+02, 4.90548182e+00, 8.57656002e+00, 1.28026459e+02,
          1.07674856e+01, 1.71909256e+01 ]
      - [ 9.31814728e+01, 2.68241978e+00, 4.85633278e+00, 9.20926285e+01,
          6.66162586e+00, 1.02344046e+01 ]
      - [ 6.82599182e+01, 1.91071427e+00, 2.54365087e+00, 6.87757950e+01,
          5.30357122e+00, 6.18055534e+00 ]
      - [ 7.33313522e+01, 3.20039678e+00, 2.79166675e+00, 7.02003937e+01,
          8.71825409e+00, 7.70634937e+00 ]
      - [ 1.06894844e+02, 4.47222233e+00, 6.13095236e+00, 1.11105156e+02,
          1.01170635e+01, 1.29702377e+01 ]
      - [ 8.88166351e+01, 1.67296791e+00, 4.87334585e+00, 7.42344055e+01,
          5.57655954e+00, 1.00264654e+01 ]
      - [ 1.34478256e+02, 4.77882814e+00, 9.59546280e+00, 1.31009445e+02,
          1.09432888e+01, 1.68657837e+01 ]
      - [ 9.43251419e+01, 1.98865783e+00, 6.57844973e+00, 9.61134186e+01,
          5.41209841e+00, 1.27637053e+01 ]
      - [ 1.02047256e+02, 2.61247635e+00, 5.66540623e+00, 8.98922501e+01,
          7.33837414e+00, 1.24045372e+01 ]
      - [ 1.12111534e+02, 2.41965985e+00, 6.24952745e+00, 1.14378075e+02,
          6.88279772e+00, 1.19848776e+01 ]
      - [ 9.59300537e+01, 2.10964084e+00, 5.21171999e+00, 9.74725876e+01,
          6.54631376e+00, 1.33686199e+01 ]
      - [ 5.35734138e+01, 4.19444466e+00, 2.33730149e+00, 5.51349220e+01,
          9.44246006e+00, 5.70634937e+00 ]
      - [ 1.03362946e+02, 2.34593582e+00, 5.94707012e+00, 9.86521759e+01,
          7.69565201e+00, 1.38241968e+01 ]
      - [ 7.31011887e+01, 4.25198412e+00, 3.17261910e+00, 7.01964264e+01,
          8.16468239e+00, 8.28968239e+00 ]
      - [ 9.65765610e+01, 1.40831757e+00, 4.01890373e+00, 9.09489594e+01,
          5.80151224e+00, 1.06408319e+01 ]
      - [ 8.25734100e+01, 3.40476179e+00, 5.55555534e+00, 8.62301559e+01,
          9.20833302e+00, 1.29642859e+01 ]
      - [ 1.03255951e+02, 6.71626997e+00, 5.62301588e+00, 9.51607132e+01,
          1.31488094e+01, 1.22301588e+01 ]
      - [ 1.08369049e+02, 5.70436525e+00, 7.06746054e+00, 1.05170631e+02,
          1.19027777e+01, 1.56091270e+01 ]
      - [ 1.02275795e+02, 5.18253946e+00, 6.52182531e+00, 9.24325409e+01,
          1.13452377e+01, 1.45853176e+01 ]
      - [ 8.28412018e+01, 6.22954845e+00, 6.52407503e+00, 8.26386032e+01,
          1.00348110e+01, 1.05449038e+01 ]
      - [ 1.29601135e+02, 2.55765605e+00, 6.47826099e+00, 1.27814743e+02,
          6.98298693e+00, 1.38336487e+01 ]
      - [ 1.16465027e+02, 2.25519848e+00, 6.29300547e+00, 1.22826088e+02,
          7.03780699e+00, 1.32741022e+01 ]
      - [ 9.42816620e+01, 2.27977324e+00, 5.46313810e+00, 8.86729660e+01,
          6.83742905e+00, 1.14366732e+01 ]
      - [ 6.00595245e+01, 2.04960322e+00, 1.65476191e+00, 6.19603157e+01,
          7.15873003e+00, 4.51984119e+00 ]
      - [ 9.20756149e+01, 2.17769384e+00, 4.11720228e+00, 8.23100204e+01,
          7.03591681e+00, 9.61058617e+00 ]
      - [ 8.81984100e+01, 7.93849230e+00, 5.45634937e+00, 9.65396805e+01,
          1.57678576e+01, 1.34345236e+01 ]
      - [ 1.21149338e+02, 4.13043499e+00, 8.28544426e+00, 1.22293007e+02,
          9.73345947e+00, 1.54196596e+01 ]
      - [ 9.78714523e+01, 3.21739125e+00, 6.45368624e+00, 9.50812836e+01,
          8.72400761e+00, 1.30831757e+01 ]
      - [ 1.04039680e+02, 1.06349211e+01, 5.73611116e+00, 1.00672623e+02,
          1.82222214e+01, 1.30992060e+01 ]
      - [ 9.80436478e+01, 6.69841290e+00, 7.73809528e+00, 9.27599182e+01,
          1.47837305e+01, 1.66130943e+01 ]
      - [ 8.27678604e+01, 3.08928561e+00, 2.82142854e+00, 7.74384918e+01,
          8.35912704e+00, 7.59325409e+00 ]
      - [ 7.35753937e+01, 4.39682531e+00, 3.02182531e+00, 7.12996063e+01,
          8.68452358e+00, 7.73809528e+00 ]
      - [ 6.81865082e+01, 4.95436525e+00, 3.40674615e+00, 7.58273773e+01,
          1.03948412e+01, 8.08134937e+00 ]
      - [ 1.04611115e+02, 4.91071415e+00, 6.73015881e+00, 1.02283730e+02,
          1.10535717e+01, 1.43690472e+01 ]
      - [ 1.01869049e+02, 8.22420597e+00, 7.36706352e+00, 9.97380981e+01,
          1.70555553e+01, 1.52003965e+01 ]
      - [ 9.97896805e+01, 7.13095236e+00, 6.06547642e+00, 9.77896805e+01,
          1.46269846e+01, 1.37003965e+01 ]
      - [ 1.04020798e+02, 2.38563323e+00, 7.01323271e+00, 9.05368652e+01,
          6.42533064e+00, 1.26691875e+01 ]
      - [ 7.43511887e+01, 4.22023821e+00, 4.54365063e+00, 7.27301559e+01,
          9.02380943e+00, 1.07619047e+01 ]
      - [ 1.25209831e+02, 4.21171999e+00, 9.74858189e+00, 1.21451797e+02,
          1.01190929e+01, 1.75708885e+01 ]
      - [ 8.95952377e+01, 3.97420645e+00, 5.13293648e+00, 8.89603195e+01,
          1.04543648e+01, 1.27380953e+01 ]
      - [ 9.45330811e+01, 2.03969765e+00, 4.54820395e+00, 8.94177704e+01,
          6.11909246e+00, 1.06313801e+01 ]
      - [ 1.00954628e+02, 2.38941407e+00, 7.24763727e+00, 9.88374329e+01,
          6.42155027e+00, 1.43629494e+01 ]
      - [ 1.13031746e+02, 6.43452358e+00, 6.75198412e+00, 1.07690475e+02,
          1.29563494e+01, 1.39880953e+01 ]
      - [ 7.05396805e+01, 3.67063498e+00, 1.91865075e+00, 7.02261887e+01,
          9.77579403e+00, 6.15674591e+00 ]
      - [ 1.10270325e+02, 2.51984882e+00, 6.93383741e+00, 1.14661629e+02,
          7.20793962e+00, 1.37410212e+01 ]
      - [ 1.24166351e+02, 2.59546304e+00, 6.62948942e+00, 1.23510399e+02,
          8.25708866e+00, 1.42665405e+01 ]
      - [ 1.23661629e+02, 2.59357285e+00, 4.94517946e+00, 1.19931946e+02,
          7.52173901e+00, 1.15689983e+01 ]
      - [ 9.33723984e+01, 2.00567102e+00, 6.04347849e+00, 9.30396957e+01,
          6.07561445e+00, 1.25009451e+01 ]
      - [ 1.08145561e+02, 2.82041597e+00, 7.47826099e+00, 1.06383743e+02,
          7.50472593e+00, 1.35425329e+01 ]
      - [ 1.07718338e+02, 3.52551985e+00, 7.24007559e+00, 9.55179596e+01,
          8.25330830e+00, 1.43345938e+01 ]
      - [ 1.06185257e+02, 2.15689993e+00, 6.49149323e+00, 1.03506615e+02,
          6.27977324e+00, 1.39035921e+01 ]
      - [ 1.00819443e+02, 6.01984119e+00, 6.84722233e+00, 1.02680557e+02,
          1.18531742e+01, 1.42559528e+01 ]
      - [ 7.41686478e+01, 2.89285707e+00, 2.88293648e+00, 7.32996063e+01,
          8.44444466e+00, 7.43650770e+00 ]
      - [ 1.11009453e+02, 2.93572783e+00, 7.20415878e+00, 1.09321358e+02,
          7.96786404e+00, 1.39867678e+01 ]
      - [ 1.01795837e+02, 2.45557666e+00, 5.31947088e+00, 1.04179581e+02,
          7.58790159e+00, 1.25047255e+01 ]
      - [ 9.77088852e+01, 2.22873354e+00, 6.38374281e+00, 9.47504730e+01,
          6.90926266e+00, 1.25406427e+01 ]
      - [ 6.68154755e+01, 4.45039701e+00, 2.12301588e+00, 6.64900818e+01,
          1.07460318e+01, 5.49603176e+00 ]
      - [ 1.09984123e+02, 5.74206352e+00, 7.08928585e+00, 1.12761902e+02,
          1.33849211e+01, 1.54404764e+01 ]
      - [ 1.21334595e+02, 3.82608700e+00, 7.81285429e+00, 1.19608696e+02,
          9.64461231e+00, 1.51795845e+01 ]
      - [ 1.12421547e+02, 2.87712669e+00, 6.57466936e+00, 1.18763702e+02,
          8.58223057e+00, 1.43175802e+01 ]
      - [ 9.27976227e+01, 5.33730173e+00, 6.24404764e+00, 8.74404755e+01,
          1.16408730e+01, 1.39563494e+01 ]
      - [ 1.16873344e+02, 2.41965985e+00, 6.05103970e+00, 1.21920609e+02,
          7.02835560e+00, 1.31890364e+01 ]
      - [ 1.06856331e+02, 2.42911148e+00, 4.87901688e+00, 9.53440475e+01,
          7.90548182e+00, 1.08468809e+01 ]
      - [ 1.03060493e+02, 2.88090730e+00, 5.24574661e+00, 8.98676758e+01,
          7.70321369e+00, 1.12608700e+01 ]
      - [ 8.09474716e+01, 8.40480804e+00, 6.91297340e+00, 8.06133575e+01,
          1.20588398e+01, 1.01046944e+01 ]
      - [ 9.01984100e+01, 5.23015881e+00, 5.25992060e+00, 8.86805573e+01,
          1.08908730e+01, 1.02996035e+01 ]
      - [ 5.27996025e+01, 2.78571439e+00, 8.73015881e-01, 5.19404755e+01,
          7.08928585e+00, 3.26388884e+00 ]
      - [ 9.54623032e+01, 6.72023821e+00, 4.39682531e+00, 9.41626968e+01,
          1.32500000e+01, 1.04841270e+01 ]
      - [ 6.60932541e+01, 3.56349206e+00, 1.91071427e+00, 6.18472214e+01,
          8.39484119e+00, 5.64285707e+00 ]
      - [ 6.14265862e+01, 1.63293648e+00, 1.85119045e+00, 6.00714302e+01,
          5.21428585e+00, 5.57341290e+00 ]
      - [ 8.91795807e+01, 2.38563323e+00, 5.12287331e+00, 7.84423447e+01,
          6.11720228e+00, 1.26635160e+01 ]
      - [ 6.34682541e+01, 3.05555558e+00, 1.72023809e+00, 6.73492050e+01,
          7.18849230e+00, 5.08531761e+00 ]
      - [ 6.95972214e+01, 2.58333325e+00, 2.01785707e+00, 7.13591232e+01,
          7.06547642e+00, 6.33134937e+00 ]
      - [ 9.31111145e+01, 6.69841290e+00, 6.62103176e+00, 9.65238113e+01,
          1.30813494e+01, 1.35000000e+01 ]
      - [ 1.27035919e+02, 3.09640837e+00, 6.99621916e+00, 1.21731567e+02,
          8.79395103e+00, 1.54858227e+01 ]
      - [ 1.06748581e+02, 3.57655954e+00, 6.48015118e+00, 1.08950851e+02,
          9.22873306e+00, 1.35028353e+01 ]
      - [ 1.06081284e+02, 2.18336487e+00, 5.21928167e+00, 103.,
          6.99432898e+00, 1.16049147e+01 ]
      - [ 6.87976227e+01, 2.18650794e+00, 1.77182543e+00, 7.43571396e+01,
          6.85515881e+00, 6.00396824e+00 ]
      - [ 1.25357277e+02, 3.28733468e+00, 6.82797718e+00, 1.20158791e+02,
          9.11531162e+00, 1.43497162e+01 ]
      - [ 1.32279770e+02, 3.71644616e+00, 1.24536858e+01, 1.24396973e+02,
          9.76559544e+00, 2.07504730e+01 ]
      - [ 9.17788315e+01, 2.00756145e+00, 5.28166342e+00, 7.84725876e+01,
          5.90926266e+00, 9.70132351e+00 ]
      - [ 6.42876968e+01, 4.91666651e+00, 2.18253970e+00, 6.75952377e+01,
          1.05912695e+01, 5.40079355e+00 ]
      - [ 4.68333321e+01, 2.11309528e+00, 1.05753970e+00, 4.64246025e+01,
          6.39087296e+00, 3.29761910e+00 ]
      - [ 9.97448044e+01, 2.07372403e+00, 6.31947088e+00, 9.49621964e+01,
          5.74858236e+00, 1.34404535e+01 ]
      - [ 1.01894142e+02, 2.13043475e+00, 4.92627621e+00, 1.04733459e+02,
          5.94517946e+00, 1.19300566e+01 ]
      - [ 7.85255203e+01, 2.31190920e+00, 4.21361065e+00, 8.05727768e+01,
          6.91682434e+00, 1.11909266e+01 ]
      - [ 1.15257935e+02, 6.44246054e+00, 6.82142878e+00, 1.08595238e+02,
          1.29027777e+01, 1.42460318e+01 ]
      - [ 1.07056709e+02, 2.54253316e+00, 6.49527407e+00, 1.03243858e+02,
          6.28544426e+00, 1.24366732e+01 ]
      - [ 1.21317581e+02, 2.84688091e+00, 7.78828001e+00, 1.31913040e+02,
          8.08695698e+00, 1.44461250e+01 ]
      - [ 6.51309509e+01, 4.66468239e+00, 1.31944442e+00, 6.03095245e+01,
          9.73214245e+00, 5.10317469e+00 ]
      - [ 6.02956352e+01, 2.72817469e+00, 2.06349206e+00, 5.85436516e+01,
          7.07738113e+00, 5.76388884e+00 ]
      - [ 1.04914680e+02, 7.34523821e+00, 8.07539654e+00, 9.96488113e+01,
          1.53730154e+01, 1.66269836e+01 ]
      - [ 5.12956352e+01, 2.84325385e+00, 1.83531749e+00, 5.12261887e+01,
          7.61111116e+00, 5.49206352e+00 ]
      - [ 8.10548172e+01, 2.35916829e+00, 5.16446114e+00, 8.46143646e+01,
          7.72211742e+00, 1.13005667e+01 ]
      - [ 1.07465027e+02, 2.82986760e+00, 6.20982981e+00, 1.02618149e+02,
          8.24007607e+00, 1.40056715e+01 ]
      - [ 8.32361145e+01, 3.15674615e+00, 4.01388884e+00, 8.11547623e+01,
          8.41071415e+00, 9.66269875e+00 ]
      - [ 8.38452377e+01, 4.22023821e+00, 4.21230173e+00, 7.68690491e+01,
          1.04146824e+01, 1.08353176e+01 ]
      - [ 1.03819443e+02, 5.14285707e+00, 6.75396824e+00, 9.68313522e+01,
          1.22400789e+01, 1.45138893e+01 ]
      - [ 1.07302460e+02, 3.28166342e+00, 7.07750463e+00, 9.93402634e+01,
          7.70699453e+00, 1.38809071e+01 ]
      - [ 1.16555763e+02, 2.55009460e+00, 6.26654053e+00, 1.19304344e+02,
          7.85255194e+00, 1.39981098e+01 ]
      - [ 4.72281761e+01, 2.33928561e+00, 1.07539678e+00, 4.85654755e+01,
          6.35317469e+00, 3.70039678e+00 ]
      - [ 9.75634918e+01, 4.60912704e+00, 6.54365063e+00, 9.39543686e+01,
          1.11468258e+01, 1.42996035e+01 ]
      - [ 7.47936478e+01, 4.05555534e+00, 3.29166675e+00, 7.30734100e+01,
          9.52976227e+00, 8.76587296e+00 ]
      - [ 1.04181473e+02, 2.03780723e+00, 4.92438555e+00, 9.66219254e+01,
          6.97353506e+00, 1.11190929e+01 ]
      - [ 1.07021828e+02, 5.62698412e+00, 6.82142878e+00, 1.01676590e+02,
          1.32043648e+01, 1.48472223e+01 ]
      - [ 8.33472214e+01, 5.26785707e+00, 5.53373003e+00, 8.62480164e+01,
          1.22400789e+01, 1.30793648e+01 ]
      - [ 8.92519836e+01, 5.51190472e+00, 5.31349230e+00, 8.60337296e+01,
          1.12599211e+01, 1.16964283e+01 ]
      - [ 9.10376968e+01, 6.59325409e+00, 5.91865063e+00, 8.78789673e+01,
          1.29107141e+01, 1.27896824e+01 ]
      - [ 1.10372398e+02, 2.30812860e+00, 6.92060471e+00, 1.01077507e+02,
          7.20604897e+00, 1.34158792e+01 ]
      - [ 1.07686508e+02, 6.76587296e+00, 6.94841290e+00, 1.10065475e+02,
          1.39027777e+01, 1.50019846e+01 ]
      - [ 9.59742050e+01, 7.35515881e+00, 5.67063475e+00, 1.00261902e+02,
          1.49781742e+01, 1.33333330e+01 ]
      - [ 9.30964050e+01, 1.71455574e+00, 5.14744806e+00, 9.43383713e+01,
          6.11342144e+00, 1.12495270e+01 ]
      - [ 1.05913040e+02, 2.34782600e+00, 8.29300594e+00, 9.17996216e+01,
          7.45935726e+00, 1.54026461e+01 ]
      - [ 1.03124763e+02, 2.39319468e+00, 4.86578465e+00, 9.58638916e+01,
          7.55198479e+00, 1.25897923e+01 ]
      - [ 1.09805290e+02, 2.54442334e+00, 5.29300547e+00, 9.84442368e+01,
          7.82041597e+00, 1.20661621e+01 ]
      - [ 9.19642868e+01, 6.14484119e+00, 6.71825409e+00, 8.52182541e+01,
          1.29285717e+01, 1.42480154e+01 ]
      - [ 6.19880943e+01, 4.10912704e+00, 1.66468251e+00, 6.15694427e+01,
          9.23611069e+00, 5.74603176e+00 ]
      - [ 7.76200409e+01, 1.73156905e+00, 3.25708890e+00, 7.41474457e+01,
          5.84688091e+00, 8.30812836e+00 ]
      - [ 9.43043442e+01, 1.64650285e+00, 3.59357285e+00, 8.59584122e+01,
          6.01701307e+00, 9.28166389e+00 ]
      - [ 1.10344048e+02, 2.93761826e+00, 6.34026480e+00, 1.03168243e+02,
          8.15311909e+00, 1.36578445e+01 ]
      - [ 1.01746033e+02, 2.80555558e+00, 7.88888884e+00, 1.00121033e+02,
          8.11706352e+00, 1.66845245e+01 ]
      - [ 8.72956314e+01, 4.19444466e+00, 4.71230173e+00, 8.72242050e+01,
          9.86706352e+00, 1.00476189e+01 ]
      - [ 6.41071396e+01, 3.23412704e+00, 9.98015881e-01, 6.59265900e+01,
          7.89087296e+00, 3.51388884e+00 ]
      - [ 7.98690491e+01, 3.89484119e+00, 2.12103176e+00, 7.54880981e+01,
          9.29365063e+00, 6.97222233e+00 ]
      - [ 8.11825409e+01, 4.34126997e+00, 4.06349230e+00, 8.15158768e+01,
          1.12678576e+01, 1.00932541e+01 ]
      - [ 9.87757950e+01, 5.49206352e+00, 4.18849230e+00, 9.86944427e+01,
          1.19365082e+01, 1.07083330e+01 ]
      - [ 1.09691872e+02, 2.48582220e+00, 5.54064274e+00, 1.04177696e+02,
          7.49527407e+00, 1.17051039e+01 ]
      - [ 9.54007950e+01, 4.82539701e+00, 6.96031761e+00, 9.31051559e+01,
          1.11289682e+01, 1.43412695e+01 ]
      - [ 4.61488113e+01, 2.18650794e+00, 6.05158746e-01, 4.65277786e+01,
          6.16071415e+00, 2.59126973e+00 ]
      - [ 9.02539673e+01, 6.20634937e+00, 4.95833349e+00, 8.66785736e+01,
          1.26150789e+01, 1.21587305e+01 ]
      - [ 6.04087296e+01, 3.55357146e+00, 2.58730149e+00, 6.35099220e+01,
          9.23809528e+00, 7.25198412e+00 ]
      - [ 5.88968239e+01, 1.57539678e+00, 1.98015869e+00, 6.04226189e+01,
          5.36111116e+00, 6.03968239e+00 ]
      - [ 1.02914680e+02, 7.66071415e+00, 6.28571415e+00, 9.87519836e+01,
          1.45198412e+01, 1.40833330e+01 ]
      - [ 5.82281761e+01, 1.62500000e+00, 2.10714293e+00, 6.03035698e+01,
          5.10714293e+00, 6.03769827e+00 ]
      - [ 9.71739120e+01, 2.74480152e+00, 5.61625719e+00, 9.74858246e+01,
          8.78260899e+00, 1.29432888e+01 ]
      - [ 1.13914932e+02, 3.03024578e+00, 7.47069931e+00, 1.08587898e+02,
          7.91115332e+00, 1.37051039e+01 ]
      - [ 8.38979187e+01, 1.89035916e+00, 4.50283575e+00, 7.51795807e+01,
          5.87334585e+00, 1.00491495e+01 ]
      - [ 6.58650818e+01, 2.93253970e+00, 1.26587307e+00, 6.57857132e+01,
          7.77976179e+00, 4.55357122e+00 ]
      - [ 1.10202377e+02, 5.92658710e+00, 6.94444466e+00, 1.02841270e+02,
          1.31765871e+01, 1.59186506e+01 ]
      - [ 9.71865082e+01, 5.84523821e+00, 5.11507940e+00, 1.00990082e+02,
          1.20238094e+01, 1.22222223e+01 ]
      - [ 1.01005951e+02, 4.41468239e+00, 5.25793648e+00, 9.42043686e+01,
          9.96825409e+00, 1.09900789e+01 ]
      - [ 9.02460327e+01, 4.57142878e+00, 4.51785707e+00, 8.55297623e+01,
          8.91269875e+00, 9.94047642e+00 ]
      - [ 9.56587296e+01, 4.70634937e+00, 6.11309528e+00, 9.70853195e+01,
          1.14583330e+01, 1.39662695e+01 ]
      - [ 6.42658768e+01, 3.51984119e+00, 1.43849206e+00, 6.35873032e+01,
          8.68452358e+00, 5.05357122e+00 ]
      - [ 4.94861107e+01, 2.23214293e+00, 1.71031749e+00, 4.96845245e+01,
          6.36111116e+00, 4.88293648e+00 ]
      - [ 9.82400818e+01, 6.12500000e+00, 6.20634937e+00, 8.95416641e+01,
          1.23273811e+01, 1.26865082e+01 ]
      - [ 6.77641754e+01, 5.94949198e+00, 2.92664003e+00, 6.86023636e+01,
          8.95160675e+00, 5.36684132e+00 ]
      - [ 9.86880875e+01, 2.15500951e+00, 5.90359163e+00, 8.67240067e+01,
          6.26465034e+00, 1.23837433e+01 ]
      - [ 1.05853409e+02, 6.94744301e+00, 7.84727383e+00, 1.07710297e+02,
          1.14187908e+01, 1.29032145e+01 ]
      - [ 9.97063522e+01, 8.01785755e+00, 5.64484119e+00, 9.87738113e+01,
          1.58571424e+01, 1.27559528e+01 ]
      - [ 1.01517860e+02, 6.97023821e+00, 6.84325409e+00, 9.94702377e+01,
          1.42400789e+01, 1.48075399e+01 ]
      - [ 1.24767487e+02, 4.58412075e+00, 9.34026432e+00, 1.26790169e+02,
          9.89981079e+00, 1.76143665e+01 ]
      - [ 9.85633240e+01, 3.23440456e+00, 6.76937628e+00, 9.19224930e+01,
          6.83931971e+00, 1.27013235e+01 ]
      - [ 8.85841217e+01, 1.47637045e+00, 3.18714547e+00, 7.87145538e+01,
          4.79584122e+00, 8.38374329e+00 ]
      - [ 9.45119019e+01, 5.19642878e+00, 5.41666651e+00, 8.92460327e+01,
          1.14563494e+01, 1.17896824e+01 ]
      - [ 6.92599182e+01, 3.15476179e+00, 2.78373027e+00, 7.13888855e+01,
          8.94841290e+00, 7.78769827e+00 ]
      - [ 7.91541443e+01, 8.99092388e+00, 7.93170357e+00, 8.04719009e+01,
          1.31351109e+01, 1.20319777e+01 ]
      - [ 1.02684525e+02, 5.98412704e+00, 5.15079355e+00, 1.03652779e+02,
          1.29404764e+01, 1.22162695e+01 ]
      - [ 1.04857140e+02, 4.36309528e+00, 6.89285707e+00, 1.04851189e+02,
          1.04265871e+01, 1.57103176e+01 ]
      - [ 1.13801514e+02, 2.45557666e+00, 6.76748562e+00, 1.10905479e+02,
          8.08884716e+00, 1.33497162e+01 ]
      - [ 9.61417770e+01, 1.62759924e+00, 6.17202282e+00, 9.24385605e+01,
          5.94896030e+00, 1.36427221e+01 ]
      - [ 1.05701324e+02, 2.72400761e+00, 6.16635180e+00, 8.77145538e+01,
          7.49527407e+00, 1.18563328e+01 ]
      - [ 9.28234100e+01, 5.74404764e+00, 3.86507940e+00, 9.72142868e+01,
          1.45595236e+01, 9.79960346e+00 ]
      - [ 9.96448441e+01, 4.14682531e+00, 5.76190472e+00, 1.02833336e+02,
          1.04226189e+01, 1.25376987e+01 ]
      - [ 1.21992439e+02, 4.37051058e+00, 8.09262753e+00, 1.20852554e+02,
          9.37996197e+00, 1.67240067e+01 ]
      - [ 9.12400818e+01, 5.40476179e+00, 5.36309528e+00, 8.67876968e+01,
          1.07261906e+01, 11. ]
      - [ 1.04376984e+02, 4.71626997e+00, 6.19841290e+00, 1.06551590e+02,
          1.11785717e+01, 1.37956352e+01 ]
      - [ 1.06580338e+02, 2.25708890e+00, 7.20226860e+00, 1.08153122e+02,
          7.12476349e+00, 1.42741022e+01 ]
      - [ 9.26269836e+01, 6.59325409e+00, 4.31150770e+00, 8.99246063e+01,
          1.28690472e+01, 1.12301588e+01 ]
      - [ 9.26824188e+01, 1.93194711e+00, 4.60491514e+00, 8.77750473e+01,
          6.08317566e+00, 1.02778826e+01 ]
      - [ 5.74444427e+01, 2.31944442e+00, 2.53373027e+00, 5.85932541e+01,
          7.17261887e+00, 6.47817469e+00 ]
      - [ 1.05759918e+02, 5.12896824e+00, 6.94841290e+00, 1.02946426e+02,
          1.19146824e+01, 1.41031742e+01 ]
      - [ 5.76488113e+01, 2.38690472e+00, 1.08333337e+00, 5.53412704e+01,
          6.44642878e+00, 3.53769851e+00 ]
      - [ 1.15603027e+02, 2.37429118e+00, 5.64461231e+00, 1.19669189e+02,
          6.69376183e+00, 1.31776934e+01 ]
      - [ 1.00551987e+02, 1.87901700e+00, 4.80718327e+00, 9.04725876e+01,
          6.02079391e+00, 1.09111528e+01 ]
      - [ 1.11139885e+02, 3.96408319e+00, 9.33081245e+00, 1.03466919e+02,
          1.01342154e+01, 1.58223066e+01 ]
      - [ 9.19424591e+01, 4.87301588e+00, 4.90277767e+00, 9.44722214e+01,
          1.10734129e+01, 1.11964283e+01 ]
      - [ 8.33742905e+01, 1.78827977e+00, 3.65028358e+00, 8.08601151e+01,
          5.88090754e+00, 8.08128548e+00 ]
      - [ 1.09105858e+02, 3.70132327e+00, 8.43856335e+00, 1.17542534e+02,
          9.23440456e+00, 1.68809071e+01 ]
      - [ 1.07824196e+02, 3.10585999e+00, 7.08506632e+00, 9.89451828e+01,
          8.00945187e+00, 1.32098303e+01 ]
      - [ 9.49305573e+01, 6.56349230e+00, 5.96428585e+00, 9.07678604e+01,
          1.23115082e+01, 1.28630953e+01 ]
      - [ 1.00239532e+02, 6.72969913e+00, 6.10014296e+00, 1.00200340e+02,
          9.81079769e+00, 8.94920063e+00 ]
      - [ 8.76408768e+01, 7.52777767e+00, 5.55158710e+00, 9.33273773e+01,
          1.47361107e+01, 1.24742060e+01 ]
      - [ 1.01109123e+02, 7.65079355e+00, 4.96428585e+00, 1.00863098e+02,
          1.45436506e+01, 1.17242060e+01 ]
      - [ 1.08896027e+02, 2.73156905e+00, 6.98109627e+00, 1.12173912e+02,
          7.67674875e+00, 1.36332703e+01 ]
      - [ 1.08589287e+02, 5.11706352e+00, 6.54166651e+00, 1.01694443e+02,
          1.20952377e+01, 1.39722223e+01 ]
      - [ 6.61607132e+01, 3.70238090e+00, 1.62896824e+00, 6.49166641e+01,
          9.17063522e+00, 4.37698412e+00 ]
      - [ 6.85138855e+01, 3.75000000e+00, 2.08134913e+00, 6.94900818e+01,
          9.98214245e+00, 5.98214293e+00 ]
      - [ 6.61329346e+01, 4.32142878e+00, 2.08333325e+00, 6.81884918e+01,
          1.05595236e+01, 5.95238113e+00 ]
      - [ 9.18393173e+01, 1.99621928e+00, 3.80529308e+00, 8.15784531e+01,
          5.47258997e+00, 8.28733444e+00 ]
      - [ 9.42060471e+01, 2.51795840e+00, 6.28166342e+00, 9.07769394e+01,
          7.21361065e+00, 1.27939510e+01 ]
      - [ 9.41785736e+01, 4.84920645e+00, 5.64484119e+00, 9.78174591e+01,
          1.10674601e+01, 1.30416670e+01 ]
      - [ 8.32514191e+01, 1.97164464e+00, 4.91304350e+00, 7.50793915e+01,
          6.06049156e+00, 1.03270321e+01 ]
      - [ 6.99404755e+01, 4.43055534e+00, 2.81150794e+00, 6.96091232e+01,
          9.48611069e+00, 7.43650770e+00 ]
      - [ 9.66448441e+01, 8.07936478e+00, 6.17658710e+00, 9.73055573e+01,
          1.63472214e+01, 1.26190472e+01 ]
      - [ 9.74442368e+01, 2.04914927e+00, 6.04158783e+00, 1.00313797e+02,
          6.25708866e+00, 1.16143665e+01 ]
      - [ 8.76578445e+01, 2.54253316e+00, 5.23818541e+00, 85.,
          8.14555740e+00, 1.19168243e+01 ]
      - [ 9.77996063e+01, 4.70833349e+00, 6.28769827e+00, 9.91130981e+01,
          1.15317459e+01, 1.42797623e+01 ]
      - [ 1.04224205e+02, 7.75396824e+00, 6.66666651e+00, 1.01138885e+02,
          1.61190472e+01, 1.37876987e+01 ]
      - [ 6.23373032e+01, 3.71230149e+00, 1.45833337e+00, 6.53214264e+01,
          8.70833302e+00, 4.01785707e+00 ]
      - [ 1.25646500e+02, 4.24763727e+00, 9.09262753e+00, 1.14438560e+02,
          1.00415878e+01, 1.77126656e+01 ]
      - [ 7.37519836e+01, 3.42857146e+00, 3.41071439e+00, 7.37440491e+01,
          8.68253994e+00, 8.37301540e+00 ]
      - [ 9.13551559e+01, 4.90873003e+00, 5.94642878e+00, 9.01884918e+01,
          1.15535717e+01, 1.35059528e+01 ]
      - [ 1.05396828e+02, 7.31944466e+00, 6.13690472e+00, 9.80615082e+01,
          1.55773811e+01, 1.38591270e+01 ]
      - [ 9.46091232e+01, 6.61706352e+00, 4.35119057e+00, 9.79226227e+01,
          1.35357141e+01, 1.07103176e+01 ]
      - [ 1.09553574e+02, 4.84325409e+00, 6.31547642e+00, 1.09757935e+02,
          1.10297623e+01, 1.34563494e+01 ]
      - [ 6.62857132e+01, 1.40674603e+00, 2.53769851e+00, 6.70079346e+01,
          5.21428585e+00, 6.99603176e+00 ]
      - [ 1.05085320e+02, 5.74404764e+00, 7., 1.06359123e+02,
          1.25416670e+01, 1.51230154e+01 ]
      - [ 9.20548172e+01, 3.00189042e+00, 4.84877110e+00, 8.85822296e+01,
          7.70132303e+00, 1.08355389e+01 ]
      - [ 8.27460327e+01, 3.85317469e+00, 4.00396824e+00, 7.81349182e+01,
          9.71031761e+00, 9.27777767e+00 ]
      - [ 7.14722214e+01, 3.58730149e+00, 2.56746030e+00, 7.08075409e+01,
          8.92063522e+00, 7.11507940e+00 ]
      - [ 6.60496063e+01, 4.40674591e+00, 2.08134913e+00, 6.25496025e+01,
          9.52579403e+00, 5.76785707e+00 ]
      - [ 8.13402634e+01, 1.70321357e+00, 3.75425339e+00, 8.43024597e+01,
          5.63705111e+00, 9.33081245e+00 ]
      - [ 1.15741020e+02, 3.47637057e+00, 7.81852531e+00, 1.16759926e+02,
          9.44990540e+00, 1.59981098e+01 ]
      - [ 8.10094528e+01, 1.94896030e+00, 4.44045353e+00, 7.24139862e+01,
          5.46502829e+00, 9.22684288e+00 ]
      - [ 1.08026466e+02, 2.57088852e+00, 7.28355408e+00, 1.03606804e+02,
          7.71455574e+00, 1.58260870e+01 ]
      - [ 1.21035919e+02, 3.10964084e+00, 7.95652151e+00, 1.13546310e+02,
          8.79016972e+00, 1.46502838e+01 ]
      - [ 9.30680542e+01, 2.72778821e+00, 6.17391300e+00, 8.30226822e+01,
          6.41965961e+00, 9.62948990e+00 ]
      - [ 1.08571426e+02, 5.97619057e+00, 6.30952358e+00, 1.01222221e+02,
          1.31865082e+01, 1.44642859e+01 ]
      - [ 8.33024597e+01, 1.74291110e+00, 4.44423437e+00, 8.36824188e+01,
          5.52173901e+00, 9.93761826e+00 ]
      - [ 1.36689987e+02, 2.86200380e+00, 7.50850677e+00, 1.32752365e+02,
          7.99243879e+00, 1.57164459e+01 ]
      - [ 5.39543648e+01, 3.28373027e+00, 2.51785707e+00, 5.23710327e+01,
          7.49206352e+00, 5.72222233e+00 ]
      - [ 1.07829369e+02, 5.21428585e+00, 6.05952358e+00, 1.07003967e+02,
          1.16289682e+01, 1.35654764e+01 ]
      - [ 8.97183380e+01, 3.05671072e+00, 5.16824198e+00, 8.00964050e+01,
          7.80907393e+00, 1.20680532e+01 ]
      - [ 6.31919518e+01, 4.08592558e+00, 2.64303470e+00, 6.50257874e+01,
          7.06393576e+00, 5.27387333e+00 ]
      - [ 1.03785713e+02, 5.86706352e+00, 5.92658710e+00, 1.08674606e+02,
          1.31269846e+01, 1.47083330e+01 ]
      - [ 4.83075409e+01, 2.73611116e+00, 1.46428573e+00, 4.99365082e+01,
          7.07936525e+00, 4.60515881e+00 ]
      - [ 9.36446152e+01, 2.11342144e+00, 4.18525505e+00, 8.38771286e+01,
          6.20604897e+00, 9.87523651e+00 ]
      - [ 9.24682541e+01, 6.07936525e+00, 3.41071439e+00, 9.03134918e+01,
          1.43968258e+01, 9.21230125e+00 ]
      - [ 1.02434784e+02, 2.12476373e+00, 6.61814737e+00, 1.00272209e+02,
          6.69187164e+00, 1.48412094e+01 ]
      - [ 5.93988113e+01, 3.02380943e+00, 2.24007940e+00, 6.33472214e+01,
          8.21428585e+00, 7.35317469e+00 ]
      - [ 9.33988113e+01, 3.79960322e+00, 4.71230173e+00, 9.03452377e+01,
          1.03730154e+01, 1.27440472e+01 ]
      - [ 1.11387520e+02, 3.90737247e+00, 1.07353497e+01, 1.01431000e+02,
          9.50472546e+00, 1.73440456e+01 ]
      - [ 6.94484100e+01, 4.13492060e+00, 1.88888884e+00, 7.11051559e+01,
          9.46825409e+00, 5.54563475e+00 ]
      - [ 8.56170654e+01, 3.74007940e+00, 5.32936525e+00, 8.03571396e+01,
          9.26984119e+00, 1.16527777e+01 ]
      - [ 6.98174591e+01, 3.35515881e+00, 2.95833325e+00, 75.,
          7.89484119e+00, 6.63293648e+00 ]
      - [ 7.02242050e+01, 5.08531761e+00, 2.09126973e+00, 7.25972214e+01,
          1.15178576e+01, 5.61706352e+00 ]
      - [ 1.07789680e+02, 6.34722233e+00, 7.40277767e+00, 9.93194427e+01,
          1.40198412e+01, 1.45912695e+01 ]
      - [ 8.61814728e+01, 2.09262753e+00, 4.80529308e+00, 8.20132294e+01,
          6.21361065e+00, 1.04102077e+01 ]
      - [ 9.83452377e+01, 4.99801588e+00, 6.12103176e+00, 9.75515900e+01,
          1.17658730e+01, 1.35158730e+01 ]
      - [ 9.76924591e+01, 3.91269851e+00, 4.38293648e+00, 9.07539673e+01,
          1.00178576e+01, 1.16388893e+01 ]
      - [ 1.38109634e+02, 2.50283551e+00, 6.20226860e+00, 1.30773163e+02,
          7.85633278e+00, 1.45311909e+01 ]
      - [ 1.01632935e+02, 4.88492060e+00, 6.07936525e+00, 1.05452377e+02,
          1.16686506e+01, 1.38630953e+01 ]
      - [ 1.18727791e+02, 2.55576563e+00, 6.06049156e+00, 1.21137993e+02,
          7.81474495e+00, 1.41965971e+01 ]
      - [ 5.88888893e+01, 1.56944442e+00, 1.98611116e+00, 5.71250000e+01,
          5.05952358e+00, 6.22817469e+00 ]
      - [ 9.80714264e+01, 3.97619057e+00, 4.14285707e+00, 9.26210327e+01,
          9.72420597e+00, 1.01448412e+01 ]
      - [ 5.28293648e+01, 2.73214293e+00, 9.64285731e-01, 5.43392868e+01,
          6.83333349e+00, 3.13888884e+00 ]
      - [ 1.07845238e+02, 7.79365063e+00, 6.91666651e+00, 1.02250000e+02,
          1.46626987e+01, 1.50476189e+01 ]
      - [ 5.73783989e+01, 1.48393393e+00, 3.46210861e+00, 5.58064461e+01,
          3.60962939e+00, 5.63096189e+00 ]
      - [ 8.39130402e+01, 2.43856335e+00, 5.82608700e+00, 8.63913040e+01,
          7.24763727e+00, 1.24763708e+01 ]
      - [ 1.02249527e+02, 2.54064274e+00, 6.03402662e+00, 9.82154999e+01,
          6.76370525e+00, 1.20888472e+01 ]
      - [ 9.39682541e+01, 4.86904764e+00, 6.28174591e+00, 9.05575409e+01,
          1.11904764e+01, 1.40555553e+01 ]
      - [ 9.12173920e+01, 2.19281673e+00, 4.61058617e+00, 8.01852570e+01,
          5.53308105e+00, 9.04347801e+00 ]
      - [ 1.10519844e+02, 5.09920645e+00, 6.65674591e+00, 1.11440475e+02,
          1.24543648e+01, 1.54206352e+01 ]
      - [ 8.77857132e+01, 7.99007940e+00, 5.82936525e+00, 8.91944427e+01,
          1.49523811e+01, 1.25277777e+01 ]
      - [ 7.33730164e+01, 4.04960299e+00, 3.62500000e+00, 7.06170654e+01,
          9.37698460e+00, 8.74801540e+00 ]
      - [ 8.96289673e+01, 6.65476179e+00, 7.20238113e+00, 9.32817459e+01,
          1.49186506e+01, 1.52638893e+01 ]
      - [ 1.02904762e+02, 6.50992060e+00, 6.58134937e+00, 1.04855156e+02,
          1.38015871e+01, 1.50297623e+01 ]
      - [ 4.94682541e+01, 2.75793648e+00, 7.99603164e-01, 5.23194427e+01,
          6.92063475e+00, 3.05357146e+00 ]
      - [ 1.09833336e+02, 5.62103176e+00, 6.85119057e+00, 1.06279762e+02,
          1.25436506e+01, 1.57460318e+01 ]
      - [ 9.11369019e+01, 4.76785707e+00, 6.11309528e+00, 9.40337296e+01,
          1.05793648e+01, 1.36507940e+01 ]
      - [ 1.27516068e+02, 2.72400761e+00, 4.93194723e+00, 1.26359169e+02,
          6.75992441e+00, 1.05387526e+01 ]
      - [ 9.84971619e+01, 1.53308129e+00, 5.39697552e+00, 9.95538788e+01,
          5.37996197e+00, 1.24347830e+01 ]
      - [ 6.52182541e+01, 3.51785707e+00, 1.69047618e+00, 6.83670654e+01,
          8.33134937e+00, 4.74007940e+00 ]
      - [ 7.99130402e+01, 1.73156905e+00, 4.48582220e+00, 8.24196625e+01,
          5.81663513e+00, 1.06521740e+01 ]
      - [ 4.78730164e+01, 2.17857146e+00, 1.20833337e+00, 4.99067459e+01,
          5.76388884e+00, 3.96626973e+00 ]
      - [ 8.38055573e+01, 5.16666651e+00, 5.06944466e+00, 8.28968277e+01,
          1.11130953e+01, 1.22519846e+01 ]
      - [ 1.07741020e+02, 3.08884692e+00, 5.28544426e+00, 9.97712631e+01,
          7.94707012e+00, 1.16011343e+01 ]
      - [ 1.09901703e+02, 2.70510387e+00, 7.07750463e+00, 1.02412102e+02,
          8.14177704e+00, 1.42400761e+01 ]
      - [ 8.40264664e+01, 1.50661623e+00, 3.41020799e+00, 8.53119125e+01,
          5.59735346e+00, 9.48393154e+00 ]
      - [ 9.71428604e+01, 8.71626949e+00, 5.21825409e+00, 9.14325409e+01,
          1.49146824e+01, 1.24087305e+01 ]
      - [ 1.00827377e+02, 4.23412704e+00, 6.54166651e+00, 1.01134918e+02,
          9.89880943e+00, 1.43472223e+01 ]
      - [ 9.88468781e+01, 3.73345947e+00, 8.45935726e+00, 9.20680542e+01,
          8.90170097e+00, 1.56257086e+01 ]
      - [ 8.25753937e+01, 3.76388884e+00, 5.20833349e+00, 8.34067459e+01,
          9.63492107e+00, 1.25416670e+01 ]
      - [ 1.09371033e+02, 5.06746054e+00, 6.83531761e+00, 1.06751984e+02,
          1.23710318e+01, 1.44761906e+01 ]
      - [ 1.17275993e+02, 2.16068053e+00, 6.61625719e+00, 1.17911156e+02,
          6.70510387e+00, 1.49565220e+01 ]
      - [ 1.16909264e+02, 3.63138008e+00, 8.29489613e+00, 1.24406425e+02,
          9.68998146e+00, 1.61436672e+01 ]
      - [ 9.79583359e+01, 5.11309528e+00, 6.05158710e+00, 8.85674591e+01,
          1.06944447e+01, 1.21210318e+01 ]
      - [ 1.05555557e+02, 5.94047642e+00, 6.29365063e+00, 1.07049606e+02,
          1.34345236e+01, 1.40376987e+01 ]
      - [ 9.74196625e+01, 2.07372403e+00, 7.79017019e+00, 9.27693787e+01,
          7.53308105e+00, 1.41001892e+01 ]
      - [ 1.09945183e+02, 2.64272213e+00, 6.33459377e+00, 9.39810944e+01,
          6.95652151e+00, 1.21739130e+01 ]
      - [ 8.23667297e+01, 1.80340266e+00, 3.40831757e+00, 7.66994324e+01,
          6.00189018e+00, 8.68052959e+00 ]
      - [ 1.01381851e+02, 3.00756145e+00, 7.40453672e+00, 8.67655945e+01,
          7.44801521e+00, 1.36559544e+01 ]
      - [ 8.12249527e+01, 2.05103970e+00, 5.11531210e+00, 7.95671082e+01,
          5.50283575e+00, 1.04328918e+01 ]
      - [ 1.06829369e+02, 5.40079355e+00, 6.28174591e+00, 1.03581352e+02,
          1.28015871e+01, 1.45218258e+01 ]
      - [ 1.11680557e+02, 5.86111116e+00, 6.81547642e+00, 1.05900795e+02,
          1.30555553e+01, 1.33531742e+01 ]
      - [ 1.14689980e+02, 2.36483932e+00, 7.54820395e+00, 1.10633270e+02,
          6.69565201e+00, 1.39130430e+01 ]
      - [ 1.26671074e+02, 2.24196601e+00, 6.01134205e+00, 1.22202271e+02,
          7.15122890e+00, 1.43402643e+01 ]
      - [ 9.44623032e+01, 4.64087296e+00, 5.93849230e+00, 9.56448441e+01,
          1.09900789e+01, 1.30694447e+01 ]
      - [ 1.02196594e+02, 1.96030247e+00, 6.24763727e+00, 1.06024574e+02,
          7.10207939e+00, 1.23005667e+01 ]
      - [ 9.88733444e+01, 1.74102080e+00, 4.83364820e+00, 9.45519867e+01,
          6.01134205e+00, 1.14574671e+01 ]
      - [ 1.32107758e+02, 3.55576563e+00, 8.52552032e+00, 1.26561440e+02,
          9.21928120e+00, 1.65425339e+01 ]
      - [ 1.04353172e+02, 5.67063475e+00, 6.09920645e+00, 1.01015877e+02,
          1.32380953e+01, 1.29424601e+01 ]
      - [ 8.88115082e+01, 5.41071415e+00, 5.77182531e+00, 9.04166641e+01,
          1.24285717e+01, 1.35178576e+01 ]
      - [ 1.07230156e+02, 5.78174591e+00, 5.03373003e+00, 1.05517860e+02,
          1.26091270e+01, 1.20456352e+01 ]
      - [ 7.98884659e+01, 2.31190920e+00, 4.57277870e+00, 7.94631348e+01,
          6.75047255e+00, 1.16559544e+01 ]
      - [ 9.69345245e+01, 3.92658734e+00, 6.54563475e+00, 9.24464264e+01,
          9.12103176e+00, 1.37559528e+01 ]
      - [ 9.38174591e+01, 4.86309528e+00, 5.98412704e+00, 9.68293686e+01,
          1.11091270e+01, 1.37063494e+01 ]
      - [ 6.37222214e+01, 3.01388884e+00, 2.00793648e+00, 6.23353157e+01,
          8.35912704e+00, 6.84523821e+00 ]
      - [ 9.68571396e+01, 8.49603176e+00, 5.40476179e+00, 9.37261887e+01,
          1.50297623e+01, 1.27619047e+01 ]
      - [ 1.22257088e+02, 3.46691871e+00, 7.42911148e+00, 1.30206055e+02,
          8.92816639e+00, 1.54763708e+01 ]
      - [ 9.27896805e+01, 3.51388884e+00, 4.20039701e+00, 8.78174591e+01,
          9.78968239e+00, 1.14166670e+01 ]
      - [ 9.89527435e+01, 3.36861992e+00, 6.22684288e+00, 8.80472565e+01,
          7.72022676e+00, 1.21361055e+01 ]
      - [ 8.96086960e+01, 2.24196601e+00, 4.06049156e+00, 8.10189056e+01,
          6.58601141e+00, 8.96219254e+00 ]
      - [ 1.04948410e+02, 5.45634937e+00, 7.42063475e+00, 1.10436508e+02,
          1.33591270e+01, 1.63670635e+01 ]
      - [ 9.86710739e+01, 2.09451795e+00, 5.48960304e+00, 1.05120979e+02,
          6.21361065e+00, 1.18506613e+01 ]
      - [ 9.93723984e+01, 2.00756145e+00, 4.64083195e+00, 1.05037804e+02,
          6.29867697e+00, 1.11606808e+01 ]
      - [ 1.29330811e+02, 3.65028358e+00, 1.21096411e+01, 1.22018906e+02,
          9.50094509e+00, 2.03440456e+01 ]
      - [ 1.07943291e+02, 2.96030235e+00, 5.39508486e+00, 9.15614395e+01,
          7.83364820e+00, 1.18223066e+01 ]
      - [ 9.79697571e+01, 3.36105871e+00, 5.90737247e+00, 9.12816620e+01,
          8.10585976e+00, 1.19451799e+01 ]
      - [ 1.20625710e+02, 2.70132327e+00, 6.24007559e+00, 1.16884689e+02,
          7.52551985e+00, 1.42892246e+01 ]
      - [ 8.99047623e+01, 3.06746030e+00, 5.68055534e+00, 9.28908768e+01,
          9.14484119e+00, 1.41626987e+01 ]
      - [ 5.69087296e+01, 3.57539678e+00, 1.80158734e+00, 5.53313484e+01,
          7.74404764e+00, 5.11111116e+00 ]
      - [ 1.28328918e+02, 2.65973544e+00, 6.27221155e+00, 1.29510391e+02,
          8.25519848e+00, 1.36427221e+01 ]
      - [ 7.79319458e+01, 1.55198491e+00, 4.10396957e+00, 7.46805267e+01,
          5.19470692e+00, 1.03667297e+01 ]
      - [ 8.13432541e+01, 4.53174591e+00, 2.17460322e+00, 7.60396805e+01,
          1.08214283e+01, 7.12103176e+00 ]
      - [ 1.03960320e+02, 5.82936525e+00, 5.68650770e+00, 1.02496033e+02,
          1.24365082e+01, 1.27619047e+01 ]
      - [ 4.51805573e+01, 2.45436502e+00, 9.32539701e-01, 4.95277786e+01,
          6.50198412e+00, 3.46031737e+00 ]
      - [ 9.80453720e+01, 2.18336487e+00, 6.62570906e+00, 9.76238174e+01,
          7.21928167e+00, 1.43705101e+01 ]
      - [ 1.21234406e+02, 4.42533064e+00, 9.19659710e+00, 1.21200378e+02,
          9.81663513e+00, 1.66011333e+01 ]
      - [ 9.11488113e+01, 6.79960299e+00, 5.40674591e+00, 9.00773773e+01,
          1.25773811e+01, 1.16984129e+01 ]
      - [ 5.97182541e+01, 3.90873027e+00, 2.42261910e+00, 6.31031761e+01,
          9.25198460e+00, 5.60515881e+00 ]
      - [ 9.80337296e+01, 6.48809528e+00, 6.22023821e+00, 9.47202377e+01,
          1.28293648e+01, 1.38273811e+01 ]
      - [ 106., 6.66071415e+00, 6.78968239e+00, 9.97837296e+01,
          1.41666670e+01, 1.41329365e+01 ]
      - [ 7.44940491e+01, 2.30952382e+00, 3.32936502e+00, 7.01686478e+01,
          7.27579355e+00, 8.24603176e+00 ]
      - [ 9.43293686e+01, 6.65079355e+00, 4.04761887e+00, 9.49484100e+01,
          1.30416670e+01, 1.09126987e+01 ]
      - [ 1.12483932e+02, 2.34593582e+00, 7.28166342e+00, 1.17132324e+02,
          7.13799620e+00, 1.61172028e+01 ]
      - [ 1.03691872e+02, 2.26465034e+00, 6.34593582e+00, 1.03105858e+02,
          6.16446114e+00, 1.37353497e+01 ]
      - [ 9.03837433e+01, 1.75992441e+00, 4.21171999e+00, 7.68657837e+01,
          5.45746708e+00, 8.53497124e+00 ]
      - [ 1.08466919e+02, 2.13610578e+00, 5.87712669e+00, 9.22154999e+01,
          6.58790159e+00, 1.17750473e+01 ]
      - [ 1.24075615e+02, 2.42722106e+00, 8.07939529e+00, 1.31671082e+02,
          7.04158783e+00, 1.48506613e+01 ]
      - [ 8.44900818e+01, 2.95436502e+00, 4.30158710e+00, 7.87539673e+01,
          7.82341290e+00, 1.00535717e+01 ]
      - [ 5.60039673e+01, 3.28968263e+00, 1.66468251e+00, 5.61825409e+01,
          8.05158710e+00, 5.51587296e+00 ]
      - [ 1.09529297e+02, 2.93194699e+00, 6.34404516e+00, 9.98166351e+01,
          8.43100166e+00, 1.35822306e+01 ]
      - [ 9.76616287e+01, 2.23440456e+00, 4.18525505e+00, 9.36786423e+01,
          6.84877110e+00, 9.26276016e+00 ]
      - [ 8.85079346e+01, 3.56746030e+00, 5.16269827e+00, 7.88293686e+01,
          9.00396824e+00, 1.14603176e+01 ]
      - [ 6.94325409e+01, 4.54960299e+00, 2.15277767e+00, 7.19226227e+01,
          1.01051588e+01, 5.63492060e+00 ]
      - [ 1.17240074e+02, 2.74102068e+00, 5.24952745e+00, 1.19846878e+02,
          8.07939529e+00, 1.17240076e+01 ]
      - [ 9.65853195e+01, 7.18650770e+00, 5.89880943e+00, 9.86309509e+01,
          1.54325399e+01, 1.33650789e+01 ]
      - [ 8.17539673e+01, 2.81547618e+00, 3.27182531e+00, 8.05932541e+01,
          7.47222233e+00, 7.64087296e+00 ]
      - [ 1.22306030e+02, 3.96000123e+00, 6.79160929e+00, 1.20969070e+02,
          6.77214956e+00, 1.07833128e+01 ]
      - [ 9.26448441e+01, 5.49007940e+00, 5.32936525e+00, 8.90575409e+01,
          1.19246035e+01, 1.16686506e+01 ]
      - [ 1.00295631e+02, 5.44047642e+00, 6.37896824e+00, 9.73829346e+01,
          1.11170635e+01, 1.47896824e+01 ]
      - [ 8.79007950e+01, 4.43650770e+00, 6.28769827e+00, 8.32500000e+01,
          1.06388893e+01, 1.35099211e+01 ]
      - [ 6.27698402e+01, 2.63690472e+00, 1.23214281e+00, 6.52996063e+01,
          7.05555534e+00, 3.83333325e+00 ]
      - [ 7.39841232e+01, 2.62301588e+00, 3.40476179e+00, 7.19126968e+01,
          7.83730173e+00, 8.92658710e+00 ]
      - [ 1.12240082e+02, 5.00992060e+00, 6.50595236e+00, 1.09736115e+02,
          1.11746035e+01, 1.40158730e+01 ]
      - [ 8.62551956e+01, 2.42911148e+00, 5.64083195e+00, 7.74801483e+01,
          7.17769384e+00, 1.20812855e+01 ]
      - [ 1.00638939e+02, 2.77126646e+00, 6.06805277e+00, 1.03716446e+02,
          8.23818493e+00, 1.22570887e+01 ]
      - [ 8.85793686e+01, 3.97222233e+00, 5.15476179e+00, 9.24464264e+01,
          8.70436478e+00, 1.08809528e+01 ]
      - [ 8.41527786e+01, 3.12500000e+00, 4.70238113e+00, 8.43095245e+01,
          8.33333302e+00, 1.05773811e+01 ]
      - [ 1.01984879e+02, 1.69376183e+00, 6.11531210e+00, 9.76635132e+01,
          6.32325125e+00, 1.37561436e+01 ]
      - [ 6.77261887e+01, 4.22420645e+00, 2.84325385e+00, 7.07103195e+01,
          1.00833330e+01, 7.00396824e+00 ]
      - [ 7.74087296e+01, 4.27777767e+00, 4.11706352e+00, 7.51269836e+01,
          9.91468239e+00, 1.00853176e+01 ]
      - [ 1.03148811e+02, 5.01388884e+00, 6.28373003e+00, 1.05438492e+02,
          1.21746035e+01, 1.39563494e+01 ]
      - [ 8.40812836e+01, 1.87901700e+00, 3.64650273e+00, 8.21001892e+01,
          6.15311909e+00, 9.24952698e+00 ]
      - [ 8.75059509e+01, 4.58730173e+00, 6.12896824e+00, 7.96190491e+01,
          1.01567459e+01, 1.28452377e+01 ]
      - [ 9.90694427e+01, 5.29365063e+00, 5.76785707e+00, 9.82916641e+01,
          1.22777777e+01, 1.27579365e+01 ]
      - [ 9.42873383e+01, 2.34026456e+00, 4.10396957e+00, 9.44688110e+01,
          7.27410221e+00, 1.08601131e+01 ]
      - [ 1.06954628e+02, 3.01323247e+00, 6.41776943e+00, 1.00468811e+02,
          7.95463133e+00, 1.29357281e+01 ]
      - [ 1.24903595e+02, 4.30245733e+00, 8.21361065e+00, 1.25081284e+02,
          9.45746708e+00, 1.61266537e+01 ]
      - [ 8.46370544e+01, 2.28733468e+00, 4.37996197e+00, 8.10831757e+01,
          7.45368624e+00, 9.34026432e+00 ]
      - [ 9.77599258e+01, 2.39697552e+00, 4.45179605e+00, 9.78544388e+01,
          7.88657856e+00, 1.12249527e+01 ]
      - [ 8.06289673e+01, 4.18650770e+00, 4.45238113e+00, 7.43194427e+01,
          9.57738113e+00, 9.92261887e+00 ]
      - [ 1.13071831e+02, 2.64272213e+00, 7.18525505e+00, 1.17049149e+02,
          7.78071833e+00, 1.39376183e+01 ]
      - [ 8.96200409e+01, 2.75992441e+00, 4.30812836e+00, 9.25935745e+01,
          7.55765581e+00, 1.05028353e+01 ]
      - [ 7.13412704e+01, 2.20039678e+00, 1.96825397e+00, 6.78095245e+01,
          6.44841290e+00, 6.16666651e+00 ]
      - [ 6.85575409e+01, 3.80357146e+00, 1.77777779e+00, 6.69702377e+01,
          9.41865063e+00, 6.20238113e+00 ]
      - [ 8.71472015e+01, 6.04227400e+00, 7.17287302e+00, 8.25229874e+01,
          8.06681442e+00, 9.48500156e+00 ]
      - [ 5.77142868e+01, 1.63888884e+00, 1.67658734e+00, 5.85317459e+01,
          5.42857122e+00, 4.80555534e+00 ]
      - [ 9.55436478e+01, 3.50992060e+00, 4.89285707e+00, 9.44325409e+01,
          8.32936478e+00, 1.27242060e+01 ]
      - [ 8.20019150e+01, 6.63000202e+00, 7.22283268e+00, 8.02159042e+01,
          9.33467579e+00, 1.05625715e+01 ]
      - [ 8.81626968e+01, 6.77182531e+00, 4.84523821e+00, 8.54940491e+01,
          1.35059528e+01, 1.15813494e+01 ]
      - [ 1.02748581e+02, 2.50661635e+00, 6.10396957e+00, 9.38241959e+01,
          6.56710768e+00, 1.22892246e+01 ]
      - [ 6.93333359e+01, 1.75000000e+00, 2.43055558e+00, 7.12162704e+01,
          5.25793648e+00, 7.34523821e+00 ]
      - [ 8.97380981e+01, 3.54761910e+00, 4.33333349e+00, 8.34126968e+01,
          8.91269875e+00, 1.03769846e+01 ]
      - [ 4.88750000e+01, 2.97222233e+00, 1.11111116e+00, 5.09464302e+01,
          7.09126997e+00, 3.86309528e+00 ]
      - [ 1.00085068e+02, 2.96219277e+00, 5.25330830e+00, 9.65179596e+01,
          8.24007607e+00, 1.18204155e+01 ]
      - [ 1.25875237e+02, 2.76937628e+00, 7.78260851e+00, 1.19251419e+02,
          8.48393154e+00, 1.58185253e+01 ]
      - [ 1.29998108e+02, 2.47069955e+00, 6.09640837e+00, 1.25841209e+02,
          7.33270311e+00, 1.40170135e+01 ]
      - [ 9.64990540e+01, 1.58601129e+00, 4.45368624e+00, 9.48412094e+01,
          5.11720228e+00, 1.07901697e+01 ]
      - [ 1.10535713e+02, 5.93849230e+00, 6.97420645e+00, 1.03396828e+02,
          1.29067459e+01, 1.52500000e+01 ]
      - [ 6.59464264e+01, 2.07341266e+00, 2.02380943e+00, 6.78650818e+01,
          6.68849230e+00, 5.42857122e+00 ]
      - [ 6.16984138e+01, 2., 1.91071427e+00, 6.31329384e+01,
          6.23809528e+00, 5.77777767e+00 ]
      - [ 7.72896805e+01, 2.64087296e+00, 3.23214293e+00, 7.43869019e+01,
          6.82539701e+00, 7.63690472e+00 ]
      - [ 9.39484100e+01, 4.66269827e+00, 6.36904764e+00, 9.38630981e+01,
          1.06507940e+01, 1.36825399e+01 ]
      - [ 1.17799622e+02, 3.33648396e+00, 6.06994343e+00, 1.21748581e+02,
          8.94707012e+00, 1.29149342e+01 ]
      - [ 5.05317459e+01, 2.77777767e+00, 1.39087307e+00, 4.98035698e+01,
          7.11111116e+00, 3.45238090e+00 ]
      - [ 8.85158768e+01, 6.47023821e+00, 5.46428585e+00, 8.81071396e+01,
          1.31031742e+01, 1.25138893e+01 ]
      - [ 1.20621925e+02, 4.00378084e+00, 7.89224958e+00, 1.31591675e+02,
          9.33459377e+00, 1.65349712e+01 ]
      - [ 1.05107140e+02, 4.98214293e+00, 8.17063522e+00, 9.67619019e+01,
          1.14960318e+01, 1.68055553e+01 ]
      - [ 9.42325134e+01, 2.22495270e+00, 5.00945187e+00, 9.22797699e+01,
          6.96030235e+00, 1.17863894e+01 ]
      - [ 8.10257950e+01, 3.68849206e+00, 5.34325409e+00, 7.70535736e+01,
          9.97619057e+00, 1.23611107e+01 ]
      - [ 1.09333336e+02, 5.00198412e+00, 6.71031761e+00, 1.08710320e+02,
          1.07718258e+01, 1.43392859e+01 ]
      - [ 1.05311913e+02, 3.26843095e+00, 8.20037842e+00, 9.23648376e+01,
          7.98676729e+00, 1.44291115e+01 ]
      - [ 9.36130981e+01, 4.99007940e+00, 4.60912704e+00, 9.59503937e+01,
          1.16250000e+01, 1.08888893e+01 ]
      - [ 8.06464996e+01, 1.92060494e+00, 4.84688091e+00, 7.33686218e+01,
          5.51984882e+00, 8.48582268e+00 ]
      - [ 9.71785736e+01, 5.77777767e+00, 6.93849230e+00, 9.79503937e+01,
          1.31408730e+01, 1.50059528e+01 ]
      - [ 1.20232513e+02, 3.44990540e+00, 9.79016972e+00, 1.14682419e+02,
          8.69187164e+00, 1.73572788e+01 ]
      - [ 6.02658730e+01, 1.69047618e+00, 5.47619045e-01, 5.95357132e+01,
          4.86309528e+00, 3.15277767e+00 ]
      - [ 1.23413986e+02, 2.30812860e+00, 6.06805277e+00, 1.24610588e+02,
          7.64272213e+00, 1.49243860e+01 ]
      - [ 9.09565201e+01, 2.89981103e+00, 7.20037794e+00, 8.39697571e+01,
          8.20793915e+00, 1.43988657e+01 ]
      - [ 1.01496033e+02, 7.05357122e+00, 4.99404764e+00, 1.02547623e+02,
          1.41527777e+01, 1.20039682e+01 ]
      - [ 1.03571426e+02, 6.14087296e+00, 5.02579355e+00, 9.69880981e+01,
          1.24801588e+01, 1.22797623e+01 ]
      - [ 1.09603027e+02, 2.16446114e+00, 6.02457476e+00, 1.10034027e+02,
          7.14555788e+00, 1.35973539e+01 ]
      - [ 8.25257950e+01, 4.00992060e+00, 2.95833325e+00, 7.89365082e+01,
          1.01825399e+01, 7.84920645e+00 ]
      - [ 1.14610588e+02, 3.51228738e+00, 8.17202282e+00, 1.18909264e+02,
          9.58223057e+00, 1.59243860e+01 ]
      - [ 1.13737244e+02, 3.41965985e+00, 6.40264654e+00, 1.15234406e+02,
          7.39508486e+00, 1.24706993e+01 ]
      - [ 1.06198486e+02, 2.90170121e+00, 6.36105871e+00, 9.41228714e+01,
          7.73345947e+00, 1.39716444e+01 ]
      - [ 6.14464302e+01, 4.41071415e+00, 2.37698412e+00, 6.23928566e+01,
          9.69047642e+00, 6.17460299e+00 ]
      - [ 7.49623032e+01, 4.59126997e+00, 3.70039678e+00, 6.99265900e+01,
          1.03710318e+01, 9.08531761e+00 ]
      - [ 1.29128540e+02, 3.46313810e+00, 6.82230616e+00, 1.28342148e+02,
          9.47258949e+00, 1.50264654e+01 ]
      - [ 1.02820419e+02, 2.33459353e+00, 8.32325172e+00, 8.78544388e+01,
          7.21361065e+00, 1.53194704e+01 ]
      - [ 9.02658768e+01, 3.86706352e+00, 6.38492060e+00, 8.87361145e+01,
          9.03968239e+00, 1.38134918e+01 ]
      - [ 5.78650780e+01, 1.84523809e+00, 1.53373015e+00, 5.55158730e+01,
          6.45436525e+00, 4.91865063e+00 ]
      - [ 5.25833321e+01, 2.85119057e+00, 1.50595236e+00, 5.18789673e+01,
          7.17857122e+00, 4.34126997e+00 ]
      - [ 7.12460327e+01, 4.19444466e+00, 2.15873027e+00, 7.35456314e+01,
          1.03194447e+01, 7.01190472e+00 ]
      - [ 1.21457466e+02, 3.34404540e+00, 8.04536819e+00, 1.26136108e+02,
          8.74480152e+00, 1.49300566e+01 ]
      - [ 6.19424591e+01, 3.84126973e+00, 1.77777779e+00, 6.46646805e+01,
          9.92261887e+00, 5.77579355e+00 ]
      - [ 9.37807159e+01, 1.69376183e+00, 5.10018921e+00, 9.26351624e+01,
          5.40642738e+00, 1.18884687e+01 ]
      - [ 1.02222221e+02, 8.29761887e+00, 5.76587296e+00, 1.00079369e+02,
          1.66091270e+01, 1.36448412e+01 ]
      - [ 9.83015900e+01, 8.85515881e+00, 5.98809528e+00, 9.80714264e+01,
          1.65496025e+01, 1.41230154e+01 ]
      - [ 7.67023773e+01, 4.25198412e+00, 5.07936525e+00, 7.18670654e+01,
          9.19841290e+00, 9.77976227e+00 ]
      - [ 6.20476189e+01, 2.47023821e+00, 1.09920633e+00, 6.69067459e+01,
          6.46230173e+00, 3.17261910e+00 ]
      - [ 1.03648811e+02, 5.26190472e+00, 6.15079355e+00, 1.05271828e+02,
          1.13730154e+01, 1.37182541e+01 ]
      - [ 1.14086960e+02, 2.53497171e+00, 5.98298693e+00, 1.14039696e+02,
          7.72778845e+00, 1.35689983e+01 ]
      - [ 4.59226189e+01, 2.92261910e+00, 1.16071427e+00, 4.84821434e+01,
          6.50992060e+00, 3.94246030e+00 ]
      - [ 9.98071823e+01, 2.26086950e+00, 7.59546328e+00, 9.60340271e+01,
          7.15500927e+00, 1.38090734e+01 ]
      - [ 8.72400818e+01, 4.59722233e+00, 4.75000000e+00, 8.17182541e+01,
          1.06626987e+01, 1.08750000e+01 ]
      - [ 7.94702377e+01, 2.48809528e+00, 4.49206352e+00, 7.64007950e+01,
          6.66269827e+00, 1.02321424e+01 ]
      - [ 1.02422623e+02, 4.91666651e+00, 6.38293648e+00, 1.00212303e+02,
          1.22023811e+01, 1.45317459e+01 ]
      - [ 1.10275795e+02, 6.91468239e+00, 6.96031761e+00, 1.02152779e+02,
          1.42202377e+01, 1.48253965e+01 ]
      - [ 1.25241966e+02, 4.43856335e+00, 1.09130430e+01, 1.13438560e+02,
          9.99621964e+00, 1.85217400e+01 ]
      - [ 7.21309509e+01, 3.79761910e+00, 2.04761910e+00, 6.81507950e+01,
          9.13888931e+00, 6.46825409e+00 ]
      - [ 9.08317566e+01, 1.46124768e+00, 5.14933825e+00, 8.87977295e+01,
          5.14744806e+00, 1.11020794e+01 ]
      - [ 1.11156898e+02, 3.19659734e+00, 8.31379986e+00, 1.14162567e+02,
          7.86200380e+00, 1.55954628e+01 ]
      - [ 1.24725899e+02, 3.48204160e+00, 8.41587925e+00, 1.34058594e+02,
          8.46502876e+00, 1.57939510e+01 ]
      - [ 4.95873032e+01, 3.38293648e+00, 2.02579355e+00, 4.93154755e+01,
          8.08928585e+00, 5.15079355e+00 ]
      - [ 9.56181488e+01, 1.44423437e+00, 4.52930069e+00, 9.29130402e+01,
          5.08128548e+00, 1.04158792e+01 ]
      - [ 1.12349205e+02, 5.80357122e+00, 6.64285707e+00, 1.05343254e+02,
          1.20079365e+01, 1.42480154e+01 ]
      - [ 9.12551956e+01, 3.33081293e+00, 5.49149323e+00, 8.28601151e+01,
          8.23818493e+00, 1.14120979e+01 ]
      - [ 1.01392860e+02, 7.47023821e+00, 5.17658710e+00, 1.06815475e+02,
          1.43551588e+01, 1.25119047e+01 ]
      - [ 1.10918716e+02, 2.78260875e+00, 7.53308105e+00, 9.38241959e+01,
          8.34026432e+00, 1.27618151e+01 ]
      - [ 1.23844994e+02, 3.22117209e+00, 8.14177704e+00, 1.18092628e+02,
          9.23251438e+00, 1.57429113e+01 ]
      - [ 7.75555573e+01, 3.85119057e+00, 3.99603176e+00, 7.18313522e+01,
          9.48412704e+00, 8.70833302e+00 ]
      - [ 5.96309509e+01, 3.92857146e+00, 1.71031749e+00, 5.75634918e+01,
          8.45039654e+00, 5.44444466e+00 ]
      - [ 8.14623032e+01, 4.59920645e+00, 3.95634913e+00, 8.22380981e+01,
          9.07738113e+00, 9.56944466e+00 ]
      - [ 1.34005676e+02, 3.88090730e+00, 9.68998146e+00, 1.29964081e+02,
          9.52552032e+00, 1.73383751e+01 ]
      - [ 6.01031761e+01, 4.64880943e+00, 2.35317469e+00, 6.58551559e+01,
          1.05952377e+01, 6.17063475e+00 ]
      - [ 86., 6.67857122e+00, 4.82936525e+00, 8.40436478e+01,
          1.32400789e+01, 1.09583330e+01 ]
      - [ 9.07826080e+01, 1.53686202e+00, 3.58790159e+00, 8.70926285e+01,
          4.40831757e+00, 8.06238174e+00 ]
      - [ 1.02791664e+02, 3.86706352e+00, 6.47420645e+00, 9.90932541e+01,
          9.69047642e+00, 1.38075399e+01 ]
      - [ 6.59900818e+01, 3.81944442e+00, 2.52579355e+00, 6.36369057e+01,
          8.23412704e+00, 5.78373003e+00 ]
      - [ 1.02996216e+02, 2.48960304e+00, 7.03402662e+00, 8.86030273e+01,
          6.39130449e+00, 1.21852551e+01 ]
      - [ 9.18298645e+01, 2.36294889e+00, 5.75992441e+00, 9.04499054e+01,
          6.21928167e+00, 1.14990549e+01 ]
      - [ 8.37480164e+01, 3.49404764e+00, 4.95833349e+00, 7.86170654e+01,
          8.56944466e+00, 1.20694447e+01 ]
      - [ 1.36521744e+02, 2.36294889e+00, 6.35538769e+00, 1.33372406e+02,
          6.92816639e+00, 1.52722120e+01 ]
      - [ 9.33809509e+01, 7.20634937e+00, 5.24206352e+00, 8.84563522e+01,
          1.42420635e+01, 1.21329365e+01 ]
      - [ 1.06049149e+02, 2.41587901e+00, 6.74480152e+00, 9.17126617e+01,
          6.87523651e+00, 1.23156900e+01 ]
      - [ 9.20912704e+01, 6.46428585e+00, 6.81746054e+00, 9.23630981e+01,
          1.32321424e+01, 1.40456352e+01 ]
      - [ 1.33584122e+02, 3.07750463e+00, 7.34593582e+00, 1.25009453e+02,
          8.91304302e+00, 1.46597357e+01 ]
      - [ 1.05724205e+02, 5.42460299e+00, 6.03968239e+00, 9.90496063e+01,
          1.24424601e+01, 1.38055553e+01 ]
      - [ 6.45630035e+01, 5.60236120e+00, 2.51292467e+00, 6.60643692e+01,
          8.59180737e+00, 5.05252028e+00 ]
      - [ 1.01737244e+02, 2.57844996e+00, 5.97731590e+00, 9.71077499e+01,
          7.57088852e+00, 1.28336487e+01 ]
      - [ 1.27625710e+02, 2.22495270e+00, 7.41776943e+00, 1.32931946e+02,
          7.46313810e+00, 1.59054823e+01 ]
      - [ 1.04884689e+02, 2.10775042e+00, 6.03969765e+00, 1.04682419e+02,
          7.32325125e+00, 1.30756140e+01 ]
      - [ 1.29047256e+02, 3.27599239e+00, 8.61436653e+00, 1.27931946e+02,
          8.26843071e+00, 1.60132332e+01 ]
      - [ 1.03097221e+02, 5.63888884e+00, 7.34523821e+00, 1.04511902e+02,
          1.21746035e+01, 1.39404764e+01 ]
      - [ 8.44126968e+01, 3.79166675e+00, 5.35317469e+00, 8.62023773e+01,
          9.11904716e+00, 1.04742060e+01 ]
      - [ 6.17281761e+01, 1.98015869e+00, 1.42063487e+00, 6.29662704e+01,
          6.29166651e+00, 4.53769827e+00 ]
      - [ 1.26843102e+02, 3., 6.19659758e+00, 1.23699432e+02,
          7.75992441e+00, 1.39017010e+01 ]
      - [ 7.64781723e+01, 5.40476179e+00, 3.19841266e+00, 7.38551559e+01,
          1.06269846e+01, 8.17460346e+00 ]
      - [ 1.23580338e+02, 4.36483955e+00, 8.13421535e+00, 1.23818527e+02,
          9.30812836e+00, 1.67334595e+01 ]
      - [ 1.02797729e+02, 1.81285441e+00, 5.02457476e+00, 1.03992439e+02,
          6.20415878e+00, 1.23799620e+01 ]
      - [ 1.01386902e+02, 7.05158710e+00, 6.22222233e+00, 1.05309525e+02,
          1.52876987e+01, 1.41527777e+01 ]
      - [ 1.10615082e+02, 6.17658710e+00, 7.04960299e+00, 1.08809525e+02,
          1.31547623e+01, 1.41845236e+01 ]
      - [ 1.05398865e+02, 2.20226836e+00, 6.22684288e+00, 9.31871490e+01,
          6.27599239e+00, 1.27826090e+01 ]
      - [ 1.07379959e+02, 2.31001902e+00, 6.52930069e+00, 1.11773155e+02,
          7.45179605e+00, 1.42155008e+01 ]
      - [ 1.15432541e+02, 6.12103176e+00, 6.10912704e+00, 1.10628967e+02,
          1.28928576e+01, 14. ]
      - [ 9.07063522e+01, 4.67460299e+00, 5.87896824e+00, 9.12281723e+01,
          1.11765871e+01, 1.35714283e+01 ]
      - [ 9.53611145e+01, 5.16865063e+00, 5.35119057e+00, 9.22222214e+01,
          1.17301588e+01, 1.17619047e+01 ]
      - [ 1.11067459e+02, 5.90873003e+00, 6.71031761e+00, 1.04059525e+02,
          1.21726189e+01, 1.49087305e+01 ]
      - [ 7.14444427e+01, 1.84722221e+00, 1.59325397e+00, 6.96170654e+01,
          6.36904764e+00, 6.15873003e+00 ]
      - [ 9.42063522e+01, 4.12103176e+00, 4.28968239e+00, 9.42817459e+01,
          1.00456352e+01, 1.11448412e+01 ]
      - [ 1.08175804e+02, 3.28544426e+00, 7.74669170e+00, 9.37807159e+01,
          7.54631376e+00, 1.38544426e+01 ]
      - [ 1.25190926e+02, 3.20793962e+00, 1.14650288e+01, 1.18837433e+02,
          8.86011314e+00, 1.82155018e+01 ]
      - [ 9.01455612e+01, 2.28355384e+00, 5.38185263e+00, 8.62703247e+01,
          6.19092607e+00, 1.08563328e+01 ]
      - [ 9.54365082e+01, 3.19642854e+00, 4.93253946e+00, 8.92539673e+01,
          8.17063522e+00, 1.13055553e+01 ]
      - [ 8.88511887e+01, 2.93055558e+00, 3.34325385e+00, 8.51111145e+01,
          8.02380943e+00, 8.16269875e+00 ]
      - [ 8.23769836e+01, 4.16269827e+00, 4.86309528e+00, 7.84583359e+01,
          1.05813494e+01, 1.12678576e+01 ]
      - [ 6.05039673e+01, 2.74007940e+00, 1.94642854e+00, 6.58075409e+01,
          8.12896824e+00, 6.12103176e+00 ]
      - [ 1.01246483e+02, 6.81309938e+00, 5.55439901e+00, 9.86625977e+01,
          9.57889366e+00, 8.11926937e+00 ]
      - [ 1.16421547e+02, 3.17013240e+00, 7.85066175e+00, 1.11151230e+02,
          7.48015118e+00, 1.43988657e+01 ]
      - [ 1.19122871e+02, 3.20604920e+00, 6.38941383e+00, 1.13706993e+02,
          8.46880913e+00, 1.43799620e+01 ]
      - [ 1.03376183e+02, 1.95274103e+00, 5.72778845e+00, 1.00028358e+02,
          6.05860090e+00, 1.27712669e+01 ]
      - [ 1.21463135e+02, 4.08317566e+00, 9.07750511e+00, 1.29818527e+02,
          9.18714523e+00, 1.44536858e+01 ]
      - [ 1.10122871e+02, 3.08695650e+00, 7.54253292e+00, 9.54763718e+01,
          7.77126646e+00, 1.45652170e+01 ]
      - [ 7.88115082e+01, 3.58730149e+00, 3.48015881e+00, 7.47698441e+01,
          9.36309528e+00, 8.96428585e+00 ]
      - [ 9.11153107e+01, 1.85822308e+00, 3.96408319e+00, 8.55897903e+01,
          5.70132303e+00, 8.93005657e+00 ]
      - [ 9.29980164e+01, 5.92460299e+00, 3.93055558e+00, 9.45000000e+01,
          1.38928576e+01, 1.02202377e+01 ]
      - [ 1.18914932e+02, 3.87145567e+00, 7.09451818e+00, 1.22113419e+02,
          9.99243832e+00, 1.43100185e+01 ]
      - [ 9.83174591e+01, 7.86904764e+00, 5.49007940e+00, 1.02158730e+02,
          1.42182541e+01, 1.24563494e+01 ]
      - [ 8.76181488e+01, 2.42911148e+00, 3.73345947e+00, 7.90226822e+01,
          7.41587925e+00, 9.08695698e+00 ]
      - [ 8.94914932e+01, 1.96786392e+00, 4.52741003e+00, 8.47296753e+01,
          6.39886570e+00, 1.08544426e+01 ]
      - [ 8.34844742e+01, 6.90680885e+00, 5.91836405e+00, 8.02796631e+01,
          1.00466280e+01, 8.49699020e+00 ]
      - [ 1.02691872e+02, 2.12665415e+00, 7.17958403e+00, 9.10075607e+01,
          6.36294889e+00, 1.26748581e+01 ]
      - [ 1.13429115e+02, 2.29489613e+00, 7.37051058e+00, 1.17470703e+02,
          7.48960304e+00, 1.53742914e+01 ]
      - [ 1.32599243e+02, 5.09640837e+00, 1.05141773e+01, 1.28474487e+02,
          1.08204155e+01, 1.75368614e+01 ]
      - [ 1.04739128e+02, 2.79773164e+00, 5.92249537e+00, 9.45841217e+01,
          7.68052912e+00, 1.31001892e+01 ]
      - [ 1.01797729e+02, 2.62759924e+00, 4.57466936e+00, 9.33308105e+01,
          7.80340242e+00, 1.05954628e+01 ]
      - [ 5.37063484e+01, 2.68055558e+00, 1.78174603e+00, 5.83333321e+01,
          6.88492060e+00, 4.34722233e+00 ]
      - [ 9.61726227e+01, 3.79166675e+00, 6.06150770e+00, 9.13928604e+01,
          1.03075399e+01, 1.40952377e+01 ]
      - [ 5.40277786e+01, 3.07142854e+00, 1.01190472e+00, 5.28373032e+01,
          7.76587296e+00, 3.70634913e+00 ]
      - [ 8.71785736e+01, 4.07936525e+00, 4.58531761e+00, 8.30813522e+01,
          1.04265871e+01, 1.09543648e+01 ]
      - [ 1.21338371e+02, 3.29678631e+00, 8.14744759e+00, 1.16272209e+02,
          9.42343998e+00, 1.55236292e+01 ]
      - [ 5.65694427e+01, 2.94642854e+00, 1.92857146e+00, 5.82817459e+01,
          6.90476179e+00, 4.46825409e+00 ]
      - [ 1.06031166e+02, 5.99047756e+00, 7.49952126e+00, 1.05251152e+02,
          9.79911041e+00, 1.22605162e+01 ]
      - [ 1.11223061e+02, 2.35349727e+00, 4.97920609e+00, 1.16406425e+02,
          7.65028334e+00, 1.26956520e+01 ]
      - [ 5.45873032e+01, 1.67658734e+00, 1.17261910e+00, 5.16884918e+01,
          5.49007940e+00, 3.88293648e+00 ]
      - [ 8.13818512e+01, 1.91304350e+00, 4.41209841e+00, 8.56880875e+01,
          5.76937628e+00, 1.06257086e+01 ]
      - [ 9.86086960e+01, 3.24385643e+00, 7.68620014e+00, 9.66843109e+01,
          8.53119087e+00, 1.49168243e+01 ]
      - [ 6.01626968e+01, 3.25992060e+00, 1.21825397e+00, 6.08690491e+01,
          8.17460346e+00, 4.48611116e+00 ]
      - [ 1.19419662e+02, 3.77882791e+00, 7.83742905e+00, 1.28977310e+02,
          8.99810982e+00, 1.55841208e+01 ]
      - [ 7.78998108e+01, 1.47637045e+00, 3.86200380e+00, 8.27107773e+01,
          5.03024578e+00, 1.03421555e+01 ]
      - [ 1.13744049e+02, 4.88492060e+00, 5.59126997e+00, 1.12920631e+02,
          1.07142859e+01, 1.28313494e+01 ]
      - [ 8.60119019e+01, 5.76984119e+00, 3.82341266e+00, 8.54761887e+01,
          1.25119047e+01, 9.81150818e+00 ]
      - [ 1.26725899e+02, 2.52551985e+00, 6.61625719e+00, 1.29499054e+02,
          7.94328928e+00, 1.53818521e+01 ]
      - [ 8.56049118e+01, 2.46124768e+00, 5.14555788e+00, 8.47542496e+01,
          7.46124744e+00, 1.13837433e+01 ]
      - [ 1.13368622e+02, 3.53119087e+00, 9.07561398e+00, 1.20387520e+02,
          7.51795864e+00, 1.65047264e+01 ]
      - [ 5.29206352e+01, 2.83730149e+00, 1.40674603e+00, 5.30773811e+01,
          6.89285707e+00, 4.41071415e+00 ]
      - [ 7.46527786e+01, 2.74007940e+00, 2.91071439e+00, 7.21250000e+01,
          8.63492107e+00, 8. ]
      - [ 8.35784531e+01, 2.29489613e+00, 3.89981103e+00, 7.67485809e+01,
          6.16635180e+00, 9.33648396e+00 ]
      - [ 1.09384918e+02, 5.79365063e+00, 6.67658710e+00, 1.04160713e+02,
          1.25257940e+01, 1.45337305e+01 ]
      - [ 9.98298645e+01, 2.33081293e+00, 5.24952745e+00, 8.97032166e+01,
          7.24196577e+00, 1.11663513e+01 ]
      - [ 1.05238182e+02, 2.86767483e+00, 6.66729689e+00, 1.01391304e+02,
          7.96597338e+00, 1.30151224e+01 ]
      - [ 6.20773811e+01, 2.42261910e+00, 1.41666663e+00, 6.24623032e+01,
          7.06349230e+00, 5.33730173e+00 ]
      - [ 5.81309509e+01, 2.24801588e+00, 1.26785719e+00, 5.95793648e+01,
          6.48611116e+00, 4.26984119e+00 ]
      - [ 7.77619019e+01, 4.31547642e+00, 2.19047618e+00, 7.66111145e+01,
          1.09305553e+01, 6.95238113e+00 ]
      - [ 8.87485809e+01, 2.57844996e+00, 4.40264654e+00, 8.08412094e+01,
          7.58223057e+00, 9.82608700e+00 ]
      - [ 1.11899811e+02, 2.28544426e+00, 6.42533064e+00, 1.11162567e+02,
          7.73345947e+00, 1.41947069e+01 ]
      - [ 9.79702377e+01, 4.68055534e+00, 5.02777767e+00, 9.67797623e+01,
          1.19345236e+01, 1.24801588e+01 ]
      - [ 7.84265900e+01, 4.14880943e+00, 5.31944466e+00, 7.54623032e+01,
          9.92460346e+00, 1.15634918e+01 ]
      - [ 6.25654755e+01, 2.68650794e+00, 1.66071427e+00, 6.82996063e+01,
          7.13690472e+00, 4.38888884e+00 ]
      - [ 8.86984100e+01, 4.87301588e+00, 4.86507940e+00, 8.31726227e+01,
          1.06765871e+01, 1.09404764e+01 ]
      - [ 1.06654068e+02, 1.46313798e+00, 5.84310007e+00, 1.05943291e+02,
          5.57655954e+00, 1.30604916e+01 ]
      - [ 8.00972214e+01, 3.89484119e+00, 3.19642854e+00, 7.82182541e+01,
          9.83928585e+00, 7.90674591e+00 ]
      - [ 8.25444260e+01, 2.17769384e+00, 4.93761826e+00, 7.55841217e+01,
          6.31379986e+00, 1.17863894e+01 ]
